{"learner":{"attributes":{},"gradient_booster":{"model":{"gbtree_model_param":{"num_trees":"10","size_leaf_vector":"0"},"tree_info":[0,0,0,0,0,0,0,0,0,0],"trees":[{"base_weights":[6.96478E0,3.8194273E0,9.268177E1,3.6670242E1,2.3454216E0,3.0111267E2,7.507979E1,2.06795E1,1.735491E2,8.691606E-1,1.9751873E1,2.362807E2,5.274E2,5.5941475E1,1.6003871E2,6.9847794E0,5.0111477E1,3.205263E1,2.0030319E2,1.6934934E-1,5.385787E0,4.367018E1,1.4572544E1,3.8154544E2,1.9725533E2,1.06482994E2,4.2231686E1,2.584054E2,1.2810924E2,5.953917E0,1.0185714E2,2.8305555E1,7.4295135E1,1.7923077E1,5.3714287E1,2.647375E2,1.498E2,-1.1323085E-1,1.7601669E0,1.3776903E1,4.142136E0,3.544835E1,6.505495E1,9.82924E0,2.048902E1,1.7346341E2,3.0842856E2,8.380808E1,1.5012245E2,3.2259155E1,6.045052E1,1.9913461E2,3.6529166E2,1.6583018E2,9.635821E1,4.7936E0,3.2592594E1,2.4065971E1,5.894737E1,1.1240426E2,5.5260204E1,2.3142857E1,1.0142858E1,2.0806451E2,4.1395E2,8.7109375E1,2.2714583E2,-2.9069078E-1,3.6055732E-1,6.2545047E0,1.3838478E0,1.1553353E1,2.7027779E1,2.9865355E0,5.4596505E0,3.117824E1,6.8296295E1,9.22381E1,5.609859E1,1.4114094E1,8.912306E0,1.8245327E1,5.429762E1,9.96875E1,1.8572058E2,1.042875E2,6.875833E1,1.2335897E2,2.3136363E2,2.6428572E1,3.771823E1,4.3311226E1,7.7494736E1,1.10458336E2,2.568E2,1.1589655E2,2.1712E2,1.1835897E2,6.3448277E1,1.6505235E0,9.694673E0,1.490625E1,5.3458332E1,2.0786291E1,4.2285713E1,7.9E1,3.718182E1,1.6052777E2,7.978333E1,2.650909E1,8.9943184E1,1.1284615E2,2.6226315E2,1.18708336E2,6.490476E1,1.6197223E2,3.622857E2,4.2291066E-1,-3.3531693E-1,2.565445E0,2.6077178E-1,4.903955E0,1.1315217E1,2.5029762E0,1.1212262E0,8.872283E0,1.4875862E1,1.9517857E1,3.3814816E1,5.277523E0,2.5522904E0,8.25E0,4.8503537E0,4.2533333E1,2.4961267E1,3.39375E1,7.8625E1,5.74375E1,1.0553571E2,4.400926E1,8.925E1,1.0466666E1,1.7573334E1,7.458669E0,1.2271227E1,2.645E1,1.5711967E1,1.8385715E2,2.7597221E1,8.466071E1,1.3853847E2,8.8204544E1,5.6025642E1,1.5404762E2,8.2947365E1,3.988393E1,1.9929167E1,5.2816666E1,3.449013E1,5.8460526E1,3.3163933E1,7.151685E1,1.4242857E2,3.143125E2,1.671875E2,1.6885E2,8.3625E1,1.44875E2,2.635357E2,8.4638885E1,1.4056818E2,3.0882353E1,1.0115385E2,2.893401E-1,3.0833333E0,7.7305827E0,1.9820513E1,1.795E1,8.428572E0,1.1093023E1,2.5615854E1,2.2461538E1,6.622222E1,1.06458336E2,2.3028572E2,6.6270836E1,1.1471429E2,1.7172413E1,3.5555557E1,1.23861115E2,6.4E1,1.6414285E2,4.542857E1,2.9276923E2,1.6814285E2,7.36E1,3.7E1,1.9933333E2,1.1215E2,7.15625E0,2.6362297E-1,-3.8362414E-1,-1.5281963E-1,7.095238E0,1.9941521E0,2.356802E-1,3.2571428E0,4.5964913E0,1.1714286E1,6.589286E0,1.768421E1,1.8585209E0,3.523196E0,9.652449E-1,2.2784314E0,5.4605265E0,9.693877E0,1.05472975E1,1.9118055E1,2.4076923E1,1.459375E1,4.88125E1,2.6125E1,4.1520467E0,9.177083E0,2.0068407E0,3.7838984E0,6.21875E0,1.0378641E1,4.0401406E0,6.8875E0,3.7789062E1,6.4291664E1,1.9272058E1,2.9786667E1,6.669231E1,3.5940475E1,1.1875E2,4.6555557E1,7.181818E0,1.2744186E1,1.359375E1,2.3767857E1,7.1989794E0,2.4571428E1,1.1169399E1,1.8583334E1,2.2980469E1,4.4608696E1,1.3074667E1,2.3890757E1,5.43125E1,1.9275862E1,9.9875E1,4.1444443E1,5.3857143E1,9.771875E1,4.504E1,7.06E1,1.1523077E2,1.93E2,5.7375E1,1.109375E2,3.1544117E1,5.047826E1,1.680814E1,2.7028572E1,3.25625E1,5.7565216E1,2.8344828E1,4.206818E1,7.8666664E1,4.3395832E1,2.7317308E1,6.025E1,1.1927273E2,6.3962025E1,4.4E1,9.746429E1,6.157143E1,8.545455E0,6.642857E1,1.2142857E2,-7.2E-2,9.041096E-1,2.5151515E0,7.2045455E0,1.2386666E1,5.026515E0,2.9892857E1,1.3634615E1,8.393939E0,1.8181818E1,3.8074074E1,1.9151785E1,2.8285715E1,1.3428572E1,7.630556E1,3.1E1,1.4113636E1,2.34375E1,2.25625E1,3.8975E1,6.19375E1,1.5763637E2,3.8142857E1,6.957143E1,3.5E-1,1.5857142E1,8.936826E-2,3.903226E0,-1.7007211E-1,-4.0595868E-1,-1.9041945E-1,1.9690265E-1,4.133333E0,1.2428572E1,1.3973215E0,3.075E0,1E0,1.596275E-1,8.4375E0,1.6607143E0,1.4318181E0,5.03E0,3.0625E0,7.6190476E0,2.5444445E1,9.727273E0,2.6651785E0,1.3975E0,2.5182927E0,4.221239E0,7.197099E-1,1.3592033E0,1.8964647E0,3.5431035E0,7.6842103E0,3.075E0,8.485148E0,1.2085107E1,1.2392157E1,6.1875E0,1.2272727E1,2.42875E1,9.444445E0,1.85625E1,1.59375E1,3.0384615E1,4.382911E0,1.25E0,5.571429E0,1.1553572E1,1.6906585E0,3.3519738E0,9.9375E0,3.631124E0,7.7659574E0,5.0227275E0,1.5133333E1,9.460674E0,2.87E0,4.6659436E0,1.4933333E1,6.4078946E0,5.8E1,3.297222E1,1.2842105E1,2.133E1,2.589091E1,3.857143E1,3.4714287E1,8.914286E1,3.0708334E1,5.7714287E1,5.44E0,1.1222222E1,9.840909E0,1.5068182E1,9.525E0,1.5931034E1,3.063889E1,1.0363636E1,6.247978E0,1.0079166E1,9.070707E0,1.3482353E1,2.0925E1,1.2636364E1,2.0164894E1,2.9885714E1,2.1307692E1,6.809091E1,1.191129E1,1.834091E1,2.0247423E1,3.8217392E1,1.0133333E1,2.7133333E1,3.325E1,5.5041668E1,4.1058823E1,2.0805555E1,3.6291668E1,6.0458332E1,2.575E1,1.4231884E1,1.105E1,3.2134617E1,1.9956522E1,3.0876923E1,3.634375E1,5.431579E1,4.763889E1,2.6285715E1,1.1666667E1,3.2776318E1,5.9028168E1,9.577778E1,8.5E-1,-1.5086207E-1,4.919355E-1,2.9583333E0,4.0390625E0,1.5343137E0,9E0,4.9583335E0,1.856E1,9.117647E0,3.514563E0,1.005E1,7.9583335E0,1.7266666E1,1.2047619E1,1.8461539E0,1.7571428E1,4.3095238E1,1.0756757E1,3.3725E1,4.557143E1,8.7875E1,7.6666665E0,1.725E1,-4.051724E-2,1.1642857E0,1.52E0,1.1857142E1,-1.9939025E-1,1.6923077E0,-4.4366035E-1,-3.6079624E-1,-1.9971195E-1,1.03125E0,3.7931034E-1,-1.2804878E-1,6.111111E0,1E0,1.1368421E0,2.6944444E0,1.6458334E0,3.9189188E0,5.866013E-1,2.695946E0,1.1056888E-1,9.339207E-1,4.6875E-1,3E0,2.857143E0,7.1875E-1,4.59542E0,7.625E0,8.821428E0,4.5625E0,4.8E0,2.3112245E0,1.1331168E0,2.2340426E0,1.83E0,3.4848485E0,1.9473684E0,4.631579E0,4.428571E0,6.9682676E-1,1.2028985E0,2.2453704E0,1.6571429E0,3.5625E0,2.5416667E0,4.9565215E0,4.909091E0,1.0222222E1,4.181818E0,1.55E0,9.784483E0,6.5795455E0,1.4407408E1,8.523809E0,1.0888889E1,2.0285715E1,4.3333335E0,8.35E0,1.6615385E1,9E0,1.7826923E1,3.3866665E1,2.612903E0,4.7773438E0,4.2857143E-1,1.8125E0,3.6923077E0,7.6666665E0,1.5692307E1,7.46875E0,3.1538463E0,1.4511545E0,8.541667E0,2.886525E0,3.0792952E0,4.6363635E0,8.4875E0,3.1875E0,3.8970587E0,6.030303E0,9.9375E0,1.84375E1,8.392858E0,1.2725E1,2.6580086E0,5.175E0,6.8850574E0,4.1386666E0,2.1666666E1,4.142857E0,5.4790697E0,1.0125E1,1.935E1,3.5266666E1,8.5625E0,1.4625E1,2.64375E1,1.6E1,3.3725E1,2.0819445E1,3.3482143E1,1.8666666E1,7.25E0,3.96875E0,1.3E1,7.107143E0,1.7266666E1,9.0625E0,5.25E0,1.2545455E1,1.7714285E1,1E1,4.06875E1,2.0545454E1,5.767405E0,8.848214E0,6.702381E0,1.1746836E1,3.6153846E0,9.78161E0,6.95E0,1.4164474E1,8.588235E0,2.2429487E1,3.531579E1,2.2058823E1,1.48577585E1,1.0097436E1,2.053125E1,1.1842105E1,2.2260275E1,1.356E1,4.6733334E1,1.9777779E1,5.4375E0,1.35625E1,3.3857143E1,1.888889E1,4.18125E1,1.8714285E1,4.7727272E1,2.4714285E1,1.2375E1,3.2285713E1,1.2777778E1,3.485E1,8.473684E0,1.609804E1,3.6842106E1,1.69375E1,1E1,2.2882353E1,2.67875E1,3.598077E1,3.0102942E1,4.8066666E1,2.0285715E1,3.6666667E0,4.635E1,2.6965517E1,9.414286E1,5.4338463E1,-2.0454545E-1,7.1428573E-1,8.0487806E-1,-1.1363637E-1,8.4615386E-1,4.7596154E0,3.8541666E-1,2.509091E0,1.0727273E1,2.3066668E1,2.5384614E0,1.1076923E1,8.064516E-1,4.6164384E0,1.2368421E1,5.5416665E0,8.307693E0,1.611111E1,3.142857E0,2.857143E-1,3.4533333E1,5.5285713E1,5.923077E0,1.284E1,4.335E1,2.190909E1,1.20625E1,2.0714285E1,-2.5679013E-1,4.5738637E-1,6.101695E-1,3.7916667E0,3.1111112E0,5.882353E-1,-3.6181435E-1,2.3054754E-2,1.4285715E-1,3E0,-3.609091E-1,-4.5560563E-1,-3.632585E-1,6.666667E-1,1E0,-2.0365912E-1,-6.25E-2,1.8888888E0,2.962963E-1,1.3636364E0,-2.0394737E-1,7.1428573E-1,8.355263E-1,2.225E0,4.2222223E0,1.05E0,2.0833333E0,2.857143E-1,4.419355E0,1.1428572E0,2.125E-1,8.235294E-1,1.8656716E0,9.3125E0,-5.6842104E-2,2.2086032E-1,7.523148E-1,4.125E0,8.888889E-1,-6.25E-2,1.5714285E0,4E0,1.5625E0,-1.1111111E-1,3.2129629E0,5.49359E0,9.384615E0,3.8125E0,2E0,6.4444447E0,1.0227273E0,2.6493506E0,3.4375E0,1E0,3.65E0,1.8026316E0,2.4761906E0,1.3166667E0,3.7407408E0,2E0,3.1111112E0,8.181818E-1,6.173077E0,3.9928572E0,4.345703E-1,9.0076333E-1,8.034351E-1,1.4902778E0,4.6E0,1.8457447E0,2.2578125E0,1.2991072E0,1.1428572E0,4.3055553E0,3.0961537E0,1E0,6.392857E0,2.45E0,1.0888889E1,5.535714E0,4.3913045E0,8.568182E0,1.0181818E1,1.6294117E1,8.15E0,1.534375E1,5.5625E0,2.5625E0,5.7083335E0,1.205E1,2.5857143E1,1.4125E1,2.188889E1,4.442857E1,3.6842105E0,8.4615386E-1,5.1084905E0,3.0434783E0,4.857143E0,2E0,1.9142857E1,1E1,8.777778E0,5.0625E0,2.7411764E0,7.714286E0,9.7098213E-1,1.7632353E0,1.9772727E0,3.6381578E0,3.6013072E0,1.9733334E0,5.3920455E0,2.5441177E0,4.3333335E0,9.390625E0,5.375E0,2.9565217E0,2.5714285E0,6.703704E0,9.723684E0,6.6060605E0,1.4035714E1,8.285714E0,3.4294872E0,2.25E0,2.65E0,7E0,5.025641E0,8.22449E0,3.8637724E0,6.2261906E0,5.246377E0,1.0222222E1,6.975E0,1.1727273E1,4.132E1,2.6380953E1,1.3225E1,2.09375E1,8.714286E0,2.295E1,3.6340908E1,1.9714285E1,2.14375E1,1.09375E1,2.0464285E1,1.06875E1,5.4394464E0,8.946428E0,9.866667E0,4.2916665E0,3.7777777E0,7.279412E0,1.4465909E1,8.097222E0,1.8571428E0,4.857143E0,1.0715278E1,4.96875E0,1.6232557E1,1.1132353E1,5.15E0,1.18125E1,2.757353E1,1.8044445E1,1.24754095E1,1.71875E1,1.1904347E1,7.4074073E0,2.3515625E1,1.3705882E1,1.46875E1,8.958333E0,1.5473684E1,2.42E1,7.5555553E0,1.5941176E1,1.0615385E1,3.2857144E0,2.315E1,1.4035714E1,1.6222221E1,2.7E1,2.8661764E1,1.3857142E1,3.2375E1,1.6714285E1,3.1025E1,1.615E1,5.990625E1,3.647222E1],"categories":[],"categories_nodes":[],"categories_segments":[],"categories_sizes":[],"default_left":[true,true,true,true,true,true,true,true,true,true,true,true,false,true,true,true,true,true,true,true,true,true,true,false,true,true,true,true,true,true,false,true,true,true,false,true,true,true,true,true,true,true,true,true,true,true,false,true,true,true,true,true,false,true,true,true,true,true,true,true,true,false,false,true,false,true,true,true,true,true,true,true,true,true,true,true,true,true,true,true,true,true,true,false,false,true,true,true,false,true,true,true,true,false,true,true,true,true,true,true,true,true,false,true,true,false,false,true,true,true,true,true,true,false,true,true,false,true,true,true,true,true,true,true,true,true,true,true,true,true,true,true,true,true,true,false,false,false,false,true,true,true,true,true,true,true,true,false,true,true,false,true,true,true,true,true,true,true,true,true,true,true,false,false,false,false,true,false,false,false,false,true,true,true,true,true,true,false,false,true,true,true,false,false,false,true,false,true,true,true,true,false,false,false,false,false,false,false,false,true,true,true,true,true,true,true,true,true,false,true,true,true,true,true,true,true,true,true,true,false,true,false,true,true,true,true,true,true,true,true,true,true,false,true,true,true,true,false,false,true,true,true,true,true,false,true,true,true,true,true,true,false,true,false,false,false,false,true,false,false,false,false,false,true,true,true,true,false,false,true,true,false,true,true,false,false,true,false,false,false,false,false,false,true,true,true,true,true,true,false,true,true,false,true,true,false,false,true,false,true,false,false,false,false,false,false,false,false,false,true,true,true,true,true,true,true,false,true,true,true,true,false,true,true,true,false,true,false,false,true,true,true,true,true,true,true,true,true,true,true,true,true,true,true,true,false,false,false,false,true,true,true,true,true,true,false,true,true,true,true,true,true,true,true,true,false,true,true,true,true,false,false,false,true,false,true,false,true,true,true,true,true,false,true,true,true,true,false,false,true,true,false,false,true,true,true,true,true,true,true,false,true,true,false,false,true,true,false,true,true,true,true,false,false,false,true,true,true,false,false,true,true,false,true,true,false,false,true,true,true,true,false,false,true,true,false,true,true,true,false,false,false,true,true,true,true,false,true,true,true,true,true,true,true,true,false,false,true,true,true,true,true,true,true,true,true,true,false,true,true,true,false,false,true,true,true,true,true,true,true,true,false,true,true,true,true,true,true,true,false,false,false,false,true,true,true,false,true,false,true,false,false,true,true,true,true,true,false,false,true,false,true,true,true,true,false,true,true,true,true,false,true,true,false,false,true,true,true,true,true,true,false,false,true,true,false,true,false,false,false,true,false,true,true,false,false,false,false,false,true,false,false,false,true,false,false,false,true,true,true,true,true,true,false,true,true,true,false,false,true,true,true,true,true,true,false,false,false,false,false,false,false,false,false,false,false,false,false,false,true,true,false,false,false,true,true,false,true,false,false,false,false,true,false,true,false,false,false,false,false,false,false,false,false,false,false,false,false,false,false,false,false,false,false,false,false,false,false,false,false,false,false,false,false,false,false,false,false,false,false,false,false,false,false,false,false,false,false,false,false,false,false,false,false,false,false,false,false,false,false,false,false,false,false,false,false,false,false,false,false,false,false,false,false,false,false,false,false,false,false,false,false,false,false,false,false,false,false,false,false,false,false,false,false,false,false,false,false,false,false,false,false,false,false,false,false,false,false,false,false,false,false,false,false,false,false,false,false,false,false,false,false,false,false,false,false,false,false,false,false,false,false,false,false,false,false,false,false,false,false,false,false,false,false,false,false,false,false,false,false,false,false,false,false,false,false,false,false,false,false,false,false,false,false,false,false,false,false,false,false,false,false,false,false,false,false,false,false,false,false,false,false,false,false,false,false,false,false,false,false,false,false,false,false,false,false,false,false,false,false,false,false,false,false,false,false,false,false,false,false,false,false,false,false,false,false,false,false,false,false,false,false,false,false,false],"id":0,"left_children":[1,3,5,7,9,11,13,15,17,19,21,23,-1,25,27,29,31,33,35,37,39,41,43,-1,45,47,49,51,53,55,-1,57,59,61,-1,63,65,67,69,71,73,75,77,79,81,83,-1,85,87,89,91,93,-1,95,97,99,101,103,105,107,109,-1,-1,111,-1,113,115,117,119,121,123,125,127,129,131,133,135,137,139,141,143,145,147,-1,-1,149,151,153,-1,155,157,159,161,-1,163,165,167,169,171,173,175,177,-1,179,181,-1,-1,183,185,187,189,191,193,-1,195,197,-1,199,201,203,205,207,209,211,213,215,217,219,221,223,225,227,229,231,233,-1,-1,-1,-1,235,237,239,241,243,245,247,249,-1,251,253,-1,255,257,259,261,263,265,267,269,271,273,275,-1,-1,-1,-1,277,-1,-1,-1,-1,279,281,283,285,287,289,-1,-1,291,293,295,-1,-1,-1,297,-1,299,301,303,305,-1,-1,-1,-1,-1,-1,-1,-1,307,309,311,313,315,317,319,321,323,-1,325,327,329,331,333,335,337,339,341,343,-1,345,-1,347,349,351,353,355,357,359,361,363,365,-1,367,369,371,373,-1,-1,375,377,379,381,383,-1,385,387,389,391,393,395,-1,397,-1,-1,-1,-1,399,-1,-1,-1,-1,-1,401,403,405,407,-1,-1,409,411,-1,413,415,-1,-1,417,-1,-1,-1,-1,-1,-1,419,421,423,425,427,429,-1,431,433,-1,435,437,-1,-1,439,-1,441,-1,-1,-1,-1,-1,-1,-1,-1,-1,443,445,447,449,451,453,455,-1,457,459,461,463,-1,465,467,469,-1,471,-1,-1,473,475,477,479,481,483,485,487,489,491,493,495,497,499,501,503,-1,-1,-1,-1,505,507,509,511,513,515,-1,517,519,521,523,525,527,529,531,533,-1,535,537,539,541,-1,-1,-1,543,-1,545,-1,547,549,551,553,555,-1,557,559,561,563,-1,-1,565,567,-1,-1,569,571,573,575,577,579,581,-1,583,585,-1,-1,587,589,-1,591,593,595,597,-1,-1,-1,599,601,603,-1,-1,605,607,-1,609,611,-1,-1,613,615,617,619,-1,-1,621,623,-1,625,627,629,-1,-1,-1,631,633,635,637,-1,639,641,643,645,647,649,651,653,-1,-1,655,657,659,661,663,665,667,669,671,673,-1,675,677,679,-1,-1,681,683,685,687,689,691,693,695,-1,697,699,701,703,705,707,709,-1,-1,-1,-1,711,713,715,-1,717,-1,719,-1,-1,721,723,725,727,729,-1,-1,731,-1,733,735,737,739,-1,741,743,745,747,-1,749,751,-1,-1,753,755,757,759,761,763,-1,-1,765,767,-1,769,-1,-1,-1,771,-1,773,775,-1,-1,-1,-1,-1,777,-1,-1,-1,779,-1,-1,-1,781,783,785,787,789,791,-1,793,795,797,-1,-1,799,801,803,805,807,809,-1,-1,-1,-1,-1,-1,-1,-1,-1,-1,-1,-1,-1,-1,811,813,-1,-1,-1,815,817,-1,819,-1,-1,-1,-1,821,-1,823,-1,-1,-1,-1,-1,-1,-1,-1,-1,-1,-1,-1,-1,-1,-1,-1,-1,-1,-1,-1,-1,-1,-1,-1,-1,-1,-1,-1,-1,-1,-1,-1,-1,-1,-1,-1,-1,-1,-1,-1,-1,-1,-1,-1,-1,-1,-1,-1,-1,-1,-1,-1,-1,-1,-1,-1,-1,-1,-1,-1,-1,-1,-1,-1,-1,-1,-1,-1,-1,-1,-1,-1,-1,-1,-1,-1,-1,-1,-1,-1,-1,-1,-1,-1,-1,-1,-1,-1,-1,-1,-1,-1,-1,-1,-1,-1,-1,-1,-1,-1,-1,-1,-1,-1,-1,-1,-1,-1,-1,-1,-1,-1,-1,-1,-1,-1,-1,-1,-1,-1,-1,-1,-1,-1,-1,-1,-1,-1,-1,-1,-1,-1,-1,-1,-1,-1,-1,-1,-1,-1,-1,-1,-1,-1,-1,-1,-1,-1,-1,-1,-1,-1,-1,-1,-1,-1,-1,-1,-1,-1,-1,-1,-1,-1,-1,-1,-1,-1,-1,-1,-1,-1,-1,-1,-1,-1,-1,-1,-1,-1,-1,-1,-1,-1,-1,-1,-1,-1,-1,-1,-1,-1,-1,-1,-1,-1,-1,-1,-1,-1,-1,-1,-1,-1,-1,-1,-1,-1,-1,-1,-1,-1,-1,-1,-1,-1,-1,-1,-1,-1],"loss_changes":[6.977157E6,1.2087765E6,3.33801E6,2.342799E6,6.139741E5,9.17002E5,1.366618E6,3.8699322E5,4.17568E5,6.962172E4,2.30773E5,2.47872E5,0E0,4.7499925E5,4.5371925E5,6.364837E4,1.5873788E5,4.8525957E3,2.6623125E5,8.574152E3,3.0780188E4,5.6066812E4,4.2932438E4,0E0,7.0814875E4,1.3287812E5,9.725156E4,1.616615E5,1.2654475E5,1.9965727E4,0E0,1.9626562E4,9.824675E4,2.932085E2,0E0,2.5212425E5,2.4690062E5,1.3619227E3,4.8572275E3,1.0913516E4,3.9041836E3,3.1814562E4,1.6980594E4,3.2334453E3,5.081903E4,1.8561625E4,0E0,2.3342188E4,7.799975E4,1.0302656E4,5.273175E4,1.04586625E5,0E0,1.1057425E5,4.1001188E4,9.611774E3,9.167178E3,7.72575E3,5.3553047E3,6.0974688E4,9.533878E4,0E0,0E0,1.30386625E5,0E0,1.4747828E4,1.52701E5,3.7540662E2,9.7048126E2,1.4618232E3,7.778115E2,2.7898008E3,2.0923906E3,1.3534541E3,2.0035664E3,1.4186672E4,6.9134766E3,3.6563594E3,2.4527438E4,1.6960488E3,3.3605078E3,1.2928641E4,1.4021625E5,0E0,0E0,1.51606875E4,9.9144375E3,3.5589125E4,0E0,1.4509219E4,7.0001562E3,1.3126203E4,2.6689812E4,0E0,2.4758375E4,3.543772E4,4.5652875E4,1.7309438E4,3.2485719E4,7.441289E2,4.699465E3,1.6416992E2,0E0,5.5208086E3,8.4775E3,0E0,0E0,4.3376062E4,6.557922E3,4.0349414E3,3.0790188E4,3.750111E4,5.3265E3,0E0,2.372211E3,1.1150219E4,0E0,7.424549E2,9.7718994E1,4.8012817E2,3.1680835E2,3.1678076E2,1.2680469E3,3.248252E2,3.8642236E2,4.6283398E2,2.4609375E3,2.7720898E2,1.838668E3,9.1866797E2,7.6965576E2,8.60751E2,1.6045391E3,5.3125312E3,3.3242344E3,0E0,0E0,0E0,0E0,7.486367E3,1.7142281E4,4.6957227E2,1.5257754E3,2.0273379E3,1.2668652E3,8.425195E3,1.0321617E4,0E0,6.9561484E3,1.4270875E4,0E0,1.9264844E3,3.064414E3,9.512625E3,7.234664E3,3.3555703E3,2.2045938E3,1.010875E3,5.8861406E3,8.1533594E3,8.0142188E3,2.4481156E4,0E0,0E0,0E0,0E0,6.679203E3,0E0,0E0,0E0,0E0,1.1127323E4,1.0862656E3,4.3826847E1,4.1741663E2,2.5313525E3,2.022376E3,0E0,0E0,6.701123E2,5.874336E3,3.040879E2,0E0,0E0,0E0,6.128922E3,0E0,2.2495312E2,3.2021094E2,2.7883156E4,1.236E3,0E0,0E0,0E0,0E0,0E0,0E0,0E0,0E0,9.419772E2,4.3028516E2,4.1755493E1,3.058377E1,2.8036206E2,1.0601245E2,2.4339914E2,2.7544016E2,2.2739526E2,0E0,7.835559E1,9.2570166E2,1.11931885E2,1.254541E2,1.8271313E2,1.1646155E2,1.7794812E2,3.223379E2,5.185215E2,2.2497578E3,0E0,1.5166846E2,0E0,3.836416E2,1.09088135E2,3.4693237E2,3.362798E2,2.9671582E2,1.6824902E2,3.063877E2,5.0652637E2,9.847793E2,4.318203E3,0E0,6.2588477E2,1.5681016E3,6.2384844E3,3.0124844E3,0E0,0E0,1.7119348E2,1.4184521E2,3.0472852E2,2.261294E3,1.279166E3,0E0,7.6601953E2,1.533584E2,1.8859688E3,1.1133797E4,2.0790195E3,5.4376016E3,0E0,1.8083262E3,0E0,0E0,0E0,0E0,1.1178555E3,0E0,0E0,0E0,0E0,0E0,2.6196719E3,1.0622773E3,1.6146699E3,2.5004668E3,0E0,0E0,1.2316875E3,2.6532578E3,0E0,4.9015625E2,4.060336E3,0E0,0E0,6.747375E3,0E0,0E0,0E0,0E0,0E0,0E0,9.217086E0,6.0353638E1,2.4042993E2,4.4100464E1,1.344333E3,9.672539E2,0E0,3.986167E2,7.6723413E2,0E0,2.0223281E3,6.48841E3,0E0,0E0,2.3957969E3,0E0,3.1259082E2,0E0,0E0,0E0,0E0,0E0,0E0,0E0,0E0,0E0,9.065808E1,5.6961255E2,4.5765865E1,1.3355835E1,2.4023224E1,1.3444413E1,8.684445E1,0E0,3.47787E1,6.591614E1,2.641361E2,1.4469843E2,0E0,4.329241E1,2.0306206E1,1.3412012E2,0E0,3.6930054E1,0E0,0E0,7.353662E1,4.1702087E1,4.817511E1,9.6416504E1,9.638214E1,9.813599E1,7.304266E1,6.949817E1,8.3640625E1,2.7276123E1,1.856997E2,2.6590283E2,3.842837E2,6.004785E1,3.1946826E2,1.8717402E3,0E0,0E0,0E0,0E0,9.782471E1,5.691965E0,5.4373657E1,3.5616602E2,2.2426013E2,3.4250586E2,0E0,1.7821094E2,1.2821313E2,5.1356567E1,7.42959E1,2.0342871E2,1.08404785E2,5.1091504E2,1.0000764E3,8.628994E2,0E0,1.0053828E3,1.9745117E1,9.3814844E2,1.4830312E3,0E0,0E0,0E0,5.774453E2,0E0,3.78006E1,0E0,9.760376E1,1.339961E2,1.9238525E2,1.2957666E2,9.8970703E2,0E0,4.125713E2,5.9703125E2,3.4857715E2,2.803047E2,0E0,0E0,2.2717148E3,7.084961E2,0E0,0E0,1.5067578E3,6.963496E2,1.00384766E3,2.6874258E3,1.6779578E2,1.919873E2,9.599785E2,0E0,6.7333203E2,1.3425781E3,0E0,0E0,1.679544E3,6.0504395E2,0E0,1.2360352E3,4.411914E2,3.9282812E2,2.064754E3,0E0,0E0,0E0,9.599049E2,1.7473555E3,6.5765312E3,0E0,0E0,5.533615E0,1.1841034E1,0E0,1.4321484E2,1.1326466E2,0E0,0E0,6.350449E2,6.2929395E2,3.0362915E2,2.4502466E2,0E0,0E0,1.8529419E2,2.5406593E1,0E0,2.8264844E2,2.9652832E2,1.3248047E3,0E0,0E0,0E0,1.7275391E0,6.257362E1,9.959766E1,3.523347E1,0E0,2.9635292E1,2.5912086E1,4.107788E0,9.392853E0,1.0067642E1,1.5126736E1,1.1444328E1,5.3881006E0,0E0,0E0,2.9289474E1,4.078888E1,1.3686012E1,4.6351257E1,2.6947342E1,3.8914905E2,6.622445E1,1.2844746E2,3.6267362E0,1.2285721E1,0E0,1.1376736E1,1.4500952E2,9.8391846E1,0E0,0E0,5.6177765E1,3.998651E1,4.3802353E1,2.2130798E1,1.3325226E1,5.057251E0,2.242212E1,6.8887695E1,0E0,6.197052E1,7.009192E1,9.31344E1,3.4702545E1,3.8229645E1,2.7677887E1,6.714227E1,0E0,0E0,0E0,0E0,2.1187988E2,1.5384558E2,4.9353027E1,0E0,4.2400977E2,0E0,1.8395844E1,0E0,0E0,1.420459E2,4.0767578E2,9.2513086E2,5.5557266E1,5.7945312E1,0E0,0E0,1.5912079E1,0E0,6.391211E1,5.960083E0,1.5011163E2,8.265491E1,0E0,8.916919E1,1.2394629E2,1.775918E2,1.09376465E2,0E0,3.1370667E1,5.9625854E1,0E0,0E0,1.0221875E2,7.69043E-2,6.499548E1,7.361249E1,1.753457E2,1.9113672E2,0E0,0E0,1.8366553E2,1.8065479E2,0E0,1.3304062E3,0E0,0E0,0E0,9.3043945E1,0E0,7.2847266E2,3.8561914E2,0E0,0E0,0E0,0E0,0E0,1.614956E2,0E0,0E0,0E0,1.8708496E2,0E0,0E0,0E0,2.8079395E2,2.1753076E2,4.3378662E1,6.6682715E2,1.9362625E1,3.3770312E2,0E0,2.9586523E2,1.276239E2,1.2618867E3,0E0,0E0,4.294082E2,8.5964453E2,6.5543164E2,2.432837E1,5.865156E2,2.3699658E2,0E0,0E0,0E0,0E0,0E0,0E0,0E0,0E0,0E0,0E0,0E0,0E0,0E0,0E0,1.7623132E2,4.1678906E2,0E0,0E0,0E0,2.8208984E1,5.7222656E2,0E0,4.931504E2,0E0,0E0,0E0,0E0,7.722012E2,0E0,4.2809844E3,0E0,0E0,0E0,0E0,0E0,0E0,0E0,0E0,0E0,0E0,0E0,0E0,0E0,0E0,0E0,0E0,0E0,0E0,0E0,0E0,0E0,0E0,0E0,0E0,0E0,0E0,0E0,0E0,0E0,0E0,0E0,0E0,0E0,0E0,0E0,0E0,0E0,0E0,0E0,0E0,0E0,0E0,0E0,0E0,0E0,0E0,0E0,0E0,0E0,0E0,0E0,0E0,0E0,0E0,0E0,0E0,0E0,0E0,0E0,0E0,0E0,0E0,0E0,0E0,0E0,0E0,0E0,0E0,0E0,0E0,0E0,0E0,0E0,0E0,0E0,0E0,0E0,0E0,0E0,0E0,0E0,0E0,0E0,0E0,0E0,0E0,0E0,0E0,0E0,0E0,0E0,0E0,0E0,0E0,0E0,0E0,0E0,0E0,0E0,0E0,0E0,0E0,0E0,0E0,0E0,0E0,0E0,0E0,0E0,0E0,0E0,0E0,0E0,0E0,0E0,0E0,0E0,0E0,0E0,0E0,0E0,0E0,0E0,0E0,0E0,0E0,0E0,0E0,0E0,0E0,0E0,0E0,0E0,0E0,0E0,0E0,0E0,0E0,0E0,0E0,0E0,0E0,0E0,0E0,0E0,0E0,0E0,0E0,0E0,0E0,0E0,0E0,0E0,0E0,0E0,0E0,0E0,0E0,0E0,0E0,0E0,0E0,0E0,0E0,0E0,0E0,0E0,0E0,0E0,0E0,0E0,0E0,0E0,0E0,0E0,0E0,0E0,0E0,0E0,0E0,0E0,0E0,0E0,0E0,0E0,0E0,0E0,0E0,0E0,0E0,0E0,0E0,0E0,0E0,0E0,0E0,0E0,0E0,0E0,0E0,0E0,0E0,0E0,0E0,0E0,0E0,0E0,0E0,0E0,0E0,0E0,0E0,0E0,0E0,0E0,0E0,0E0,0E0,0E0,0E0],"parents":[2147483647,0,0,1,1,2,2,3,3,4,4,5,5,6,6,7,7,8,8,9,9,10,10,11,11,13,13,14,14,15,15,16,16,17,17,18,18,19,19,20,20,21,21,22,22,24,24,25,25,26,26,27,27,28,28,29,29,31,31,32,32,33,33,35,35,36,36,37,37,38,38,39,39,40,40,41,41,42,42,43,43,44,44,45,45,47,47,48,48,49,49,50,50,51,51,53,53,54,54,55,55,56,56,57,57,58,58,59,59,60,60,63,63,65,65,66,66,67,67,68,68,69,69,70,70,71,71,72,72,73,73,74,74,75,75,76,76,77,77,78,78,79,79,80,80,81,81,82,82,85,85,86,86,87,87,89,89,90,90,91,91,92,92,94,94,95,95,96,96,97,97,98,98,99,99,100,100,101,101,103,103,104,104,107,107,108,108,109,109,110,110,111,111,112,112,114,114,115,115,117,117,118,118,119,119,120,120,121,121,122,122,123,123,124,124,125,125,126,126,127,127,128,128,129,129,130,130,131,131,132,132,133,133,134,134,139,139,140,140,141,141,142,142,143,143,144,144,145,145,146,146,148,148,149,149,151,151,152,152,153,153,154,154,155,155,156,156,157,157,158,158,159,159,160,160,161,161,166,166,171,171,172,172,173,173,174,174,175,175,176,176,179,179,180,180,181,181,185,185,187,187,188,188,189,189,190,190,199,199,200,200,201,201,202,202,203,203,204,204,205,205,206,206,207,207,209,209,210,210,211,211,212,212,213,213,214,214,215,215,216,216,217,217,218,218,220,220,222,222,223,223,224,224,225,225,226,226,227,227,228,228,229,229,230,230,231,231,233,233,234,234,235,235,236,236,239,239,240,240,241,241,242,242,243,243,245,245,246,246,247,247,248,248,249,249,250,250,252,252,257,257,263,263,264,264,265,265,266,266,269,269,270,270,272,272,273,273,276,276,283,283,284,284,285,285,286,286,287,287,288,288,290,290,291,291,293,293,294,294,297,297,299,299,309,309,310,310,311,311,312,312,313,313,314,314,315,315,317,317,318,318,319,319,320,320,322,322,323,323,324,324,326,326,329,329,330,330,331,331,332,332,333,333,334,334,335,335,336,336,337,337,338,338,339,339,340,340,341,341,342,342,343,343,344,344,349,349,350,350,351,351,352,352,353,353,354,354,356,356,357,357,358,358,359,359,360,360,361,361,362,362,363,363,364,364,366,366,367,367,368,368,369,369,373,373,375,375,377,377,378,378,379,379,380,380,381,381,383,383,384,384,385,385,386,386,389,389,390,390,393,393,394,394,395,395,396,396,397,397,398,398,399,399,401,401,402,402,405,405,406,406,408,408,409,409,410,410,411,411,415,415,416,416,417,417,420,420,421,421,423,423,424,424,427,427,428,428,429,429,430,430,433,433,434,434,436,436,437,437,438,438,442,442,443,443,444,444,445,445,447,447,448,448,449,449,450,450,451,451,452,452,453,453,454,454,457,457,458,458,459,459,460,460,461,461,462,462,463,463,464,464,465,465,466,466,468,468,469,469,470,470,473,473,474,474,475,475,476,476,477,477,478,478,479,479,480,480,482,482,483,483,484,484,485,485,486,486,487,487,488,488,493,493,494,494,495,495,497,497,499,499,502,502,503,503,504,504,505,505,506,506,509,509,511,511,512,512,513,513,514,514,516,516,517,517,518,518,519,519,521,521,522,522,525,525,526,526,527,527,528,528,529,529,530,530,533,533,534,534,536,536,540,540,542,542,543,543,549,549,553,553,557,557,558,558,559,559,560,560,561,561,562,562,564,564,565,565,566,566,569,569,570,570,571,571,572,572,573,573,574,574,589,589,590,590,594,594,595,595,597,597,602,602,604,604],"right_children":[2,4,6,8,10,12,14,16,18,20,22,24,-1,26,28,30,32,34,36,38,40,42,44,-1,46,48,50,52,54,56,-1,58,60,62,-1,64,66,68,70,72,74,76,78,80,82,84,-1,86,88,90,92,94,-1,96,98,100,102,104,106,108,110,-1,-1,112,-1,114,116,118,120,122,124,126,128,130,132,134,136,138,140,142,144,146,148,-1,-1,150,152,154,-1,156,158,160,162,-1,164,166,168,170,172,174,176,178,-1,180,182,-1,-1,184,186,188,190,192,194,-1,196,198,-1,200,202,204,206,208,210,212,214,216,218,220,222,224,226,228,230,232,234,-1,-1,-1,-1,236,238,240,242,244,246,248,250,-1,252,254,-1,256,258,260,262,264,266,268,270,272,274,276,-1,-1,-1,-1,278,-1,-1,-1,-1,280,282,284,286,288,290,-1,-1,292,294,296,-1,-1,-1,298,-1,300,302,304,306,-1,-1,-1,-1,-1,-1,-1,-1,308,310,312,314,316,318,320,322,324,-1,326,328,330,332,334,336,338,340,342,344,-1,346,-1,348,350,352,354,356,358,360,362,364,366,-1,368,370,372,374,-1,-1,376,378,380,382,384,-1,386,388,390,392,394,396,-1,398,-1,-1,-1,-1,400,-1,-1,-1,-1,-1,402,404,406,408,-1,-1,410,412,-1,414,416,-1,-1,418,-1,-1,-1,-1,-1,-1,420,422,424,426,428,430,-1,432,434,-1,436,438,-1,-1,440,-1,442,-1,-1,-1,-1,-1,-1,-1,-1,-1,444,446,448,450,452,454,456,-1,458,460,462,464,-1,466,468,470,-1,472,-1,-1,474,476,478,480,482,484,486,488,490,492,494,496,498,500,502,504,-1,-1,-1,-1,506,508,510,512,514,516,-1,518,520,522,524,526,528,530,532,534,-1,536,538,540,542,-1,-1,-1,544,-1,546,-1,548,550,552,554,556,-1,558,560,562,564,-1,-1,566,568,-1,-1,570,572,574,576,578,580,582,-1,584,586,-1,-1,588,590,-1,592,594,596,598,-1,-1,-1,600,602,604,-1,-1,606,608,-1,610,612,-1,-1,614,616,618,620,-1,-1,622,624,-1,626,628,630,-1,-1,-1,632,634,636,638,-1,640,642,644,646,648,650,652,654,-1,-1,656,658,660,662,664,666,668,670,672,674,-1,676,678,680,-1,-1,682,684,686,688,690,692,694,696,-1,698,700,702,704,706,708,710,-1,-1,-1,-1,712,714,716,-1,718,-1,720,-1,-1,722,724,726,728,730,-1,-1,732,-1,734,736,738,740,-1,742,744,746,748,-1,750,752,-1,-1,754,756,758,760,762,764,-1,-1,766,768,-1,770,-1,-1,-1,772,-1,774,776,-1,-1,-1,-1,-1,778,-1,-1,-1,780,-1,-1,-1,782,784,786,788,790,792,-1,794,796,798,-1,-1,800,802,804,806,808,810,-1,-1,-1,-1,-1,-1,-1,-1,-1,-1,-1,-1,-1,-1,812,814,-1,-1,-1,816,818,-1,820,-1,-1,-1,-1,822,-1,824,-1,-1,-1,-1,-1,-1,-1,-1,-1,-1,-1,-1,-1,-1,-1,-1,-1,-1,-1,-1,-1,-1,-1,-1,-1,-1,-1,-1,-1,-1,-1,-1,-1,-1,-1,-1,-1,-1,-1,-1,-1,-1,-1,-1,-1,-1,-1,-1,-1,-1,-1,-1,-1,-1,-1,-1,-1,-1,-1,-1,-1,-1,-1,-1,-1,-1,-1,-1,-1,-1,-1,-1,-1,-1,-1,-1,-1,-1,-1,-1,-1,-1,-1,-1,-1,-1,-1,-1,-1,-1,-1,-1,-1,-1,-1,-1,-1,-1,-1,-1,-1,-1,-1,-1,-1,-1,-1,-1,-1,-1,-1,-1,-1,-1,-1,-1,-1,-1,-1,-1,-1,-1,-1,-1,-1,-1,-1,-1,-1,-1,-1,-1,-1,-1,-1,-1,-1,-1,-1,-1,-1,-1,-1,-1,-1,-1,-1,-1,-1,-1,-1,-1,-1,-1,-1,-1,-1,-1,-1,-1,-1,-1,-1,-1,-1,-1,-1,-1,-1,-1,-1,-1,-1,-1,-1,-1,-1,-1,-1,-1,-1,-1,-1,-1,-1,-1,-1,-1,-1,-1,-1,-1,-1,-1,-1,-1,-1,-1,-1,-1,-1,-1,-1,-1,-1,-1,-1,-1,-1,-1,-1,-1,-1,-1,-1,-1,-1,-1,-1,-1],"split_conditions":[1.445E2,2.5E0,4.5E0,1.785E2,4.25E1,3.97E2,4.635E2,2.175E1,2.9138027E1,1.35E1,8.5E0,1.5E0,2.637E0,1.05E1,1.15E1,3.9E1,2.55E1,3.225E2,7E0,5.5E0,7.5E0,1.855E2,7.65E1,1.9077271E0,3.9245453E1,2.63E2,2.655E2,7.47E2,7.25E1,1.55E1,5.092857E-1,7.75E1,5E-1,2.5E1,2.6857144E-1,9.22E2,6.25E1,1.5E0,6.5E0,1.82E2,2.35E1,1.085E2,3.5E0,1.35E1,1.4805E3,5.25E1,1.5421427E0,6.5E0,1.2305E3,1.1E1,2.35E1,2.245E2,1.8264582E0,6.84E2,2.15E1,9.806313E0,3.95E1,5E-1,1.6971515E2,7.46E2,3.45E1,1.1571428E-1,5.0714288E-2,3.6443353E0,2.06975E0,1.554535E2,1.9935168E2,9.5E0,5.5E0,5.35E1,1.55E1,2.75E1,7.855838E1,1.35E1,1.35E1,4.5E0,4.92E2,1.1297266E0,2.575E1,1.15E1,3.25E1,1.45E1,1.75E1,4.984375E-1,9.286029E-1,1.875E1,6.25E1,7.5E0,1.1568182E0,8.5E0,1.45E1,5E-1,3.35E1,5.522917E-1,5E-1,1.55E1,1.44E3,3.05E1,9.865E2,1.1985111E0,4.6E1,1.25E0,2.6729167E-1,2.5E0,7.278964E1,3.9499998E-1,1.8590909E-1,6.98574E5,3.7642795E6,1.75E1,8.85372E5,-6.8131437E0,1.6276276E2,5.935417E-1,2.2772925E2,8.6E1,1.8114285E0,-5.805E2,4.5E0,7E0,1.2142462E7,5.916424E6,2.5E0,1.75E1,1.575E1,2.5E-1,2.35E1,8.85E1,5.883078E1,6.15E1,3.95E1,3.85E1,3.55E1,1.1125E2,6.05E1,1.696875E-1,3.93125E-1,2.871875E-1,5.2767855E-1,4.175E1,3.9792676E0,3.5E0,8.1E1,1.4765E3,6.25E1,4.34E2,3.05E1,9.192857E-1,1.6185E3,3.02E2,6.9269234E-1,5.36E2,2.35E1,9.9E1,1.1857751E1,2.09E2,1.655E2,-1.1263933E0,2.415E2,1.65E1,1.25E1,1.25E1,7.121428E-1,1.5715624E0,8.359375E-1,8.4425E-1,1.79358E2,7.24375E-1,1.3176785E0,4.231944E-1,7.0284086E-1,8.5E0,6.835E2,1.45E1,4.5E0,5E-1,5E-1,8.975E-2,4.2142857E-2,1.25E1,5E-1,3.0664473E0,3.311111E-1,5.3229165E-1,1.1514286E0,4E0,5.7357144E-1,6.95E1,-6.25E0,4.60315E4,6E1,8.2071424E-1,2.2714284E-1,1.4638461E0,8.407142E-1,3.6799997E-1,1.85E-1,9.966666E-1,5.6075E-1,1.025E2,1.75E0,1.95E1,1.525E1,2.7E1,1.25E1,1.15E1,3.35E1,2.531399E0,5.8571428E-2,6.6E1,8.25E1,9.5E0,2.1062271E-1,9.5E0,1.15E1,1.1506493E0,2.65E1,6.75E1,1.5E1,1.2038461E-1,2.6896152E1,2.440625E-1,9.595E2,8.29E2,1.85E1,1.425E1,3.4E1,7.4E1,2.737095E5,2.25E1,8.3E1,2.2E1,3.214583E-1,9E0,1.4E1,3.625E2,1.18E3,5.9375E-1,2.3277777E-1,1.425E2,1.6006233E2,3.74867E5,2.75E1,1.225E1,1.2285714E-1,1.7E1,1.5025E3,2.125E1,1.15E1,2.975E1,1.31E2,2.715625E-1,1.085E2,4.99375E-1,2.0722221E-1,2.692857E-1,4.8859373E-1,2.335E2,3.53E-1,5.761538E-1,9.65E-1,2.8687498E-1,5.546875E-1,1.242E3,1.6308823E1,4.885E2,1.125E2,1.628125E-1,2.8782606E-1,5.145E2,1.875E2,3.9333332E-1,1.695E2,2.57E2,3.0124998E-1,5.963636E-1,8.827671E6,2.2E-1,4.8732144E-1,3.0785716E-1,4.2727273E-2,3.3214286E-1,6.0714287E-1,5E-1,1.35E1,5E-1,6.85E1,8.4E1,6.5E0,1.4946428E-1,2.5E0,1.5E0,9.0909086E-2,3.2554677E-1,2.7E1,1.4142857E-1,6.714286E-2,5.45E1,1.55E-1,3.44735E4,1.171875E-1,1.128125E-1,1.9487499E-1,3.096875E-1,7.8818184E-1,1.9071428E-1,3.4785712E-1,1.7499999E-3,7.928571E-2,2.05E1,2.75E1,1.19005E5,5E-1,2.315E2,8.73E2,1.2792888E1,6.2142856E-2,1.675E1,4.5E0,2.45E1,1.405E2,4.21875E-2,3.25E1,6.5E0,5E-1,1.5312499E-2,1.55E2,1.2722223E-1,4.8636366E-2,8E0,2.63E2,1.35E1,3.85E1,5.5E0,1.265E2,2.3175E2,2.045E2,4.487761E0,1.75E1,2.65E2,2.3874619E1,5E-1,3.855E2,1.05E2,-1.39E2,4.7222223E-2,9.28125E-2,7.96875E-2,1.5192308E-1,2.5E-1,1.15E1,3.35E1,1.94E2,1.65E1,7.939563E1,4.9687497E-2,1.85E1,5E-1,1.25E1,3.785E2,1.225E1,3.05E1,1.75E1,1.04E2,3.65E1,2.9E-1,3.265E2,1.5E0,1.186906E6,3.408232E1,1.9285715E-1,1.7357142E-1,4.457143E-1,5E-1,2.8857142E-1,3.329429E1,5.6111112E-2,1.005E2,1.0925E2,-1.25E0,1.41E2,7.1906567E-1,5.1818177E-2,3.17E2,5.85E1,6.35E1,1.97E2,1.04624994E-1,6.318182E-2,8.55E1,9.622644E0,1.0653845E-1,3.4045455E-1,1.95E1,8.86E2,1.625E2,9.3E2,2.475E2,-8.5E0,4.02E2,2.7520832E-1,1.675E2,2.1279305E1,1.8145834E-1,3.0229166E-1,8.01985E4,1.23E2,5.525E-2,1.3606227E2,1.7E2,2.115E2,1.62719E5,2.7157894E-1,2.3819444E-1,1.3142857E-1,3.335E2,1.55E1,1.2124781E2,4.7888887E-1,4.25E-3,1.5E0,1.5E0,1.4791666E-2,3.9228408E0,5E-1,4.4999998E-2,2.4791667E-2,8E0,1.25E0,7.75E0,1.405E2,3.9791666E-2,8.633333E-2,2.1325714E1,1.800808E1,8.785714E-2,5E-1,4.5E0,7.9E1,2.2785714E-1,4.3937498E-1,3.833333E-2,5.475E2,5E-1,2.545E2,2.4180157E1,5.928571E-2,1.2984711E0,1.705E2,2.65E1,8.0747305E6,4.5E0,5E-1,3.125E2,3.95E1,3.0555556E-2,5E-3,5E-1,3.475E2,5E-1,9.4015706E-1,2.75E0,3.853245E1,2.5E0,4.925E1,4.763155E5,5E-1,1.4285714E-2,4.4E1,8.5E0,2.35E1,4.410714E-2,2.2812499E-2,8E0,1.815E2,1.15E1,1.226969E1,1.05E1,1.35E1,9.407675E-1,2.5E0,2.2142855E-2,2.05E1,2.05E1,1.85E2,6.46875E4,3.5E1,1.945831E2,3.625E1,2.4545455E-2,5.111111E-2,2.090909E-2,7.7499994E-3,6.5E0,6.2754036E1,1.771615E5,4.2619046E-2,7.671355E5,1.01428576E-1,1.35E2,4.1750003E-2,8.3076924E-2,4.2810616E1,-4.13E2,1.2165761E1,1.675E2,5E-1,2.142857E-3,9.0625E-3,-7.95E1,3.833333E-2,3E1,1.15E1,6.949E3,1.85E1,4.2708334E-2,1.75E1,1.09955E5,8.495E2,6.461288E0,1.59375E-2,-2.5E0,-4.078146E0,4.9687497E-2,9.21875E-2,3.6E1,5E-1,1.75E1,3.83152E5,1.0038254E0,3.95E1,1.0833333E-1,2.0714285E-2,8.5E0,1.0475E2,9.675E-2,5.515E2,4.28125E-2,7.3125E-2,1.321875E-1,1.4147229E2,1.6862498E-1,9E0,5E-1,9.333333E-2,3.625E-2,1.984375E-2,6.5E-2,3.5535716E-2,1.2E1,4.5312498E-2,2.625E-2,6.272727E-2,5.050456E0,4.9999997E-2,2.0343749E-1,1.02727264E-1,5E-1,8.35E1,8.5E0,1.095E2,1.955E2,2.385E2,3.475E-2,4.235E2,1.25E1,5E-1,1.7657894E-1,1.1029411E-1,1.15E1,2.5E0,2.1E1,2.05E1,7.75E0,1.995E2,2.3366666E-1,9.888889E-2,2.71875E-2,6.7812495E-2,1.6928571E-1,9.4444446E-2,2.090625E-1,9.3571424E-2,2.3863636E-1,1.2357142E-1,6.1874997E-2,1.6142856E-1,6.3888885E-2,1.7424999E-1,5E-1,1.35E1,1.8421052E-1,8.46875E-2,4.9999997E-2,6.807598E0,7.72E2,1.7990385E-1,2E2,2.4033332E-1,1.01428576E-1,1.8333333E-2,2.3174998E-1,1.1599509E1,4.707143E-1,1.17E2,-1.0227272E-3,3.5714286E-3,4.02439E-3,-5.681818E-4,4.2307694E-3,2.3798076E-2,1.9270832E-3,1.2545454E-2,5.3636365E-2,1.1533333E-1,1.2692307E-2,5.5384617E-2,4.032258E-3,2.3082191E-2,6.1842103E-2,2.7708331E-2,4.1538462E-2,8.055555E-2,1.5714286E-2,1.4285714E-3,1.7266665E-1,2.7642855E-1,2.9615385E-2,6.42E-2,2.1674998E-1,1.0954545E-1,6.03125E-2,1.0357142E-1,-1.2839506E-3,2.2869317E-3,3.0508472E-3,1.8958334E-2,1.5555556E-2,2.9411765E-3,-1.8090717E-3,1.1527377E-4,7.142857E-4,1.5E-2,-1.8045455E-3,-2.278028E-3,-1.8162925E-3,3.3333334E-3,5E-3,-1.0182955E-3,-3.125E-4,9.4444435E-3,1.4814815E-3,6.818182E-3,-1.0197368E-3,3.5714286E-3,4.1776313E-3,1.1124999E-2,2.1111112E-2,5.2499995E-3,1.0416666E-2,1.4285714E-3,2.2096774E-2,5.7142857E-3,1.0625E-3,4.117647E-3,9.328358E-3,4.65625E-2,-2.8421052E-4,1.1043015E-3,3.761574E-3,2.0624999E-2,4.4444446E-3,-3.125E-4,7.857143E-3,2E-2,7.8125E-3,-5.5555557E-4,1.6064813E-2,2.746795E-2,4.6923075E-2,1.90625E-2,1E-2,3.2222223E-2,5.113636E-3,1.3246753E-2,1.71875E-2,5E-3,1.825E-2,9.013158E-3,1.2380953E-2,6.5833335E-3,1.8703703E-2,1E-2,1.5555556E-2,4.090909E-3,3.0865384E-2,1.9964285E-2,2.1728515E-3,4.5038164E-3,4.017175E-3,7.4513885E-3,2.2999998E-2,9.228723E-3,1.1289062E-2,6.495536E-3,5.7142857E-3,2.1527776E-2,1.5480768E-2,5E-3,3.1964283E-2,1.225E-2,5.4444447E-2,2.767857E-2,2.1956522E-2,4.284091E-2,5.0909087E-2,8.147059E-2,4.0749997E-2,7.671875E-2,2.78125E-2,1.28125E-2,2.8541667E-2,6.025E-2,1.2928571E-1,7.0625E-2,1.0944445E-1,2.2214285E-1,1.8421052E-2,4.2307694E-3,2.5542451E-2,1.5217391E-2,2.4285713E-2,1E-2,9.571428E-2,4.9999997E-2,4.3888886E-2,2.53125E-2,1.3705881E-2,3.857143E-2,4.8549105E-3,8.816176E-3,9.8863635E-3,1.8190788E-2,1.8006535E-2,9.866667E-3,2.6960228E-2,1.2720589E-2,2.1666666E-2,4.6953123E-2,2.6874999E-2,1.47826085E-2,1.2857143E-2,3.351852E-2,4.861842E-2,3.30303E-2,7.017857E-2,4.142857E-2,1.7147435E-2,1.12499995E-2,1.325E-2,3.5E-2,2.5128204E-2,4.112245E-2,1.9318862E-2,3.1130953E-2,2.6231885E-2,5.111111E-2,3.4874998E-2,5.8636364E-2,2.066E-1,1.3190477E-1,6.6125E-2,1.046875E-1,4.3571427E-2,1.1475E-1,1.8170454E-1,9.857142E-2,1.07187495E-1,5.46875E-2,1.0232142E-1,5.3437497E-2,2.7197232E-2,4.4732142E-2,4.9333334E-2,2.1458331E-2,1.8888887E-2,3.639706E-2,7.232954E-2,4.0486112E-2,9.285714E-3,2.4285713E-2,5.3576387E-2,2.4843749E-2,8.116279E-2,5.5661764E-2,2.575E-2,5.90625E-2,1.3786764E-1,9.0222225E-2,6.2377047E-2,8.59375E-2,5.9521735E-2,3.7037037E-2,1.1757812E-1,6.852941E-2,7.34375E-2,4.4791665E-2,7.736842E-2,1.21E-1,3.7777774E-2,7.970588E-2,5.3076923E-2,1.6428571E-2,1.1574999E-1,7.017857E-2,8.11111E-2,1.3499999E-1,1.4330882E-1,6.928571E-2,1.61875E-1,8.357142E-2,1.5512499E-1,8.0749996E-2,2.9953125E-1,1.823611E-1],"split_indices":[30,34,34,36,30,29,30,7,13,30,34,34,0,34,34,29,36,36,29,30,34,36,30,0,26,29,30,29,35,29,0,22,29,3,0,15,29,30,34,36,30,29,34,34,36,36,0,34,36,3,12,36,0,30,34,6,36,43,8,5,29,0,0,26,0,8,28,34,34,36,34,36,8,34,34,34,5,26,12,3,34,34,34,0,0,17,35,1,0,3,34,1,34,0,1,34,5,12,36,11,36,17,0,36,28,0,0,0,0,29,0,26,6,0,23,29,0,24,31,3,0,0,17,36,17,17,29,35,18,36,34,36,34,7,29,0,0,0,0,22,26,17,36,36,12,36,34,0,36,1,0,5,12,35,26,30,35,26,36,34,3,34,0,0,0,0,8,0,0,0,0,1,30,20,29,34,34,0,0,29,29,26,0,0,0,1,0,36,27,2,36,0,0,0,0,0,0,0,0,35,17,34,12,36,36,34,29,11,0,15,35,34,26,30,30,26,29,1,3,0,13,0,5,25,29,12,25,35,0,36,25,35,0,36,17,15,15,0,0,36,8,0,3,17,0,3,15,12,3,12,30,0,30,0,0,0,0,36,0,0,0,0,0,5,26,15,36,0,0,5,33,0,35,36,0,0,0,0,0,0,0,0,0,10,36,34,35,25,29,0,29,34,0,26,29,0,0,36,0,2,0,0,0,0,0,0,0,0,0,36,36,2,31,32,25,8,0,7,7,36,29,0,31,29,43,0,25,0,0,35,25,7,10,32,29,7,29,13,29,15,11,43,10,35,24,0,0,0,0,17,34,3,15,34,6,0,30,41,3,5,17,34,34,32,30,0,5,36,0,18,0,0,0,39,0,18,0,35,22,27,35,26,0,36,36,36,15,0,0,29,26,0,0,34,10,35,5,31,27,10,0,33,26,0,0,2,36,0,13,30,30,2,0,0,0,33,34,28,0,0,29,34,0,28,29,0,0,7,12,22,25,0,0,16,16,0,45,29,35,0,0,0,10,29,35,13,0,11,35,34,0,32,30,36,31,0,0,50,5,47,26,22,13,30,12,2,4,0,2,29,7,0,0,7,2,5,11,34,34,26,12,0,36,36,25,2,31,6,12,0,0,0,0,34,6,0,0,0,0,35,0,0,16,24,11,10,40,0,0,24,0,3,34,1,36,0,30,2,25,11,0,27,26,0,0,22,42,34,0,26,30,0,0,9,22,0,10,0,0,0,6,0,36,43,0,0,0,0,0,34,0,0,0,26,0,0,0,4,31,3,1,29,35,0,25,3,1,0,0,3,1,3,34,12,35,0,0,0,0,0,0,0,0,0,0,0,0,0,0,48,34,0,0,0,26,10,0,30,0,0,0,0,26,0,35,0,0,0,0,0,0,0,0,0,0,0,0,0,0,0,0,0,0,0,0,0,0,0,0,0,0,0,0,0,0,0,0,0,0,0,0,0,0,0,0,0,0,0,0,0,0,0,0,0,0,0,0,0,0,0,0,0,0,0,0,0,0,0,0,0,0,0,0,0,0,0,0,0,0,0,0,0,0,0,0,0,0,0,0,0,0,0,0,0,0,0,0,0,0,0,0,0,0,0,0,0,0,0,0,0,0,0,0,0,0,0,0,0,0,0,0,0,0,0,0,0,0,0,0,0,0,0,0,0,0,0,0,0,0,0,0,0,0,0,0,0,0,0,0,0,0,0,0,0,0,0,0,0,0,0,0,0,0,0,0,0,0,0,0,0,0,0,0,0,0,0,0,0,0,0,0,0,0,0,0,0,0,0,0,0,0,0,0,0,0,0,0,0,0,0,0,0,0,0,0,0,0,0,0,0,0,0,0,0,0,0,0,0,0,0,0,0,0,0,0],"split_type":[0,0,0,0,0,0,0,0,0,0,0,0,0,0,0,0,0,0,0,0,0,0,0,0,0,0,0,0,0,0,0,0,0,0,0,0,0,0,0,0,0,0,0,0,0,0,0,0,0,0,0,0,0,0,0,0,0,0,0,0,0,0,0,0,0,0,0,0,0,0,0,0,0,0,0,0,0,0,0,0,0,0,0,0,0,0,0,0,0,0,0,0,0,0,0,0,0,0,0,0,0,0,0,0,0,0,0,0,0,0,0,0,0,0,0,0,0,0,0,0,0,0,0,0,0,0,0,0,0,0,0,0,0,0,0,0,0,0,0,0,0,0,0,0,0,0,0,0,0,0,0,0,0,0,0,0,0,0,0,0,0,0,0,0,0,0,0,0,0,0,0,0,0,0,0,0,0,0,0,0,0,0,0,0,0,0,0,0,0,0,0,0,0,0,0,0,0,0,0,0,0,0,0,0,0,0,0,0,0,0,0,0,0,0,0,0,0,0,0,0,0,0,0,0,0,0,0,0,0,0,0,0,0,0,0,0,0,0,0,0,0,0,0,0,0,0,0,0,0,0,0,0,0,0,0,0,0,0,0,0,0,0,0,0,0,0,0,0,0,0,0,0,0,0,0,0,0,0,0,0,0,0,0,0,0,0,0,0,0,0,0,0,0,0,0,0,0,0,0,0,0,0,0,0,0,0,0,0,0,0,0,0,0,0,0,0,0,0,0,0,0,0,0,0,0,0,0,0,0,0,0,0,0,0,0,0,0,0,0,0,0,0,0,0,0,0,0,0,0,0,0,0,0,0,0,0,0,0,0,0,0,0,0,0,0,0,0,0,0,0,0,0,0,0,0,0,0,0,0,0,0,0,0,0,0,0,0,0,0,0,0,0,0,0,0,0,0,0,0,0,0,0,0,0,0,0,0,0,0,0,0,0,0,0,0,0,0,0,0,0,0,0,0,0,0,0,0,0,0,0,0,0,0,0,0,0,0,0,0,0,0,0,0,0,0,0,0,0,0,0,0,0,0,0,0,0,0,0,0,0,0,0,0,0,0,0,0,0,0,0,0,0,0,0,0,0,0,0,0,0,0,0,0,0,0,0,0,0,0,0,0,0,0,0,0,0,0,0,0,0,0,0,0,0,0,0,0,0,0,0,0,0,0,0,0,0,0,0,0,0,0,0,0,0,0,0,0,0,0,0,0,0,0,0,0,0,0,0,0,0,0,0,0,0,0,0,0,0,0,0,0,0,0,0,0,0,0,0,0,0,0,0,0,0,0,0,0,0,0,0,0,0,0,0,0,0,0,0,0,0,0,0,0,0,0,0,0,0,0,0,0,0,0,0,0,0,0,0,0,0,0,0,0,0,0,0,0,0,0,0,0,0,0,0,0,0,0,0,0,0,0,0,0,0,0,0,0,0,0,0,0,0,0,0,0,0,0,0,0,0,0,0,0,0,0,0,0,0,0,0,0,0,0,0,0,0,0,0,0,0,0,0,0,0,0,0,0,0,0,0,0,0,0,0,0,0,0,0,0,0,0,0,0,0,0,0,0,0,0,0,0,0,0,0,0,0,0,0,0,0,0,0,0,0,0,0,0,0,0,0,0,0,0,0,0,0,0,0,0,0,0,0,0,0,0,0,0,0,0,0,0,0,0,0,0,0,0,0,0,0,0,0,0,0,0,0,0,0,0,0,0,0,0,0,0,0,0,0,0,0,0,0,0,0,0,0,0,0,0,0,0,0,0,0,0,0,0,0,0,0,0,0,0,0,0,0,0,0,0,0,0,0,0,0,0,0,0,0,0,0,0,0,0,0,0,0,0,0,0,0,0,0,0,0,0,0,0,0,0,0,0,0,0,0,0],"sum_hessian":[2.5879E4,2.4964E4,9.15E2,1.071E3,2.3893E4,7E1,8.45E2,9.6E2,1.11E2,2.2026E4,1.867E3,5.6E1,1.4E1,6.91E2,1.54E2,6.56E2,3.04E2,1.8E1,9.3E1,1.9072E4,2.954E3,3.31E2,1.536E3,1E1,4.6E1,1.46E2,5.45E2,3.6E1,1.18E2,6.5E2,6E0,1.61E2,1.43E2,1.2E1,6E0,3.9E1,5.4E1,1.6196E4,2.876E3,3.8E2,2.574E3,2.41E2,9E1,8.54E2,6.82E2,4E1,6E0,9.8E1,4.8E1,3.54E2,1.91E2,2.5E1,1.1E1,5.2E1,6.6E1,6.24E2,2.6E1,1.43E2,1.8E1,4.6E1,9.7E1,6E0,6E0,3E1,9E0,3.1E1,2.3E1,1.1783E4,4.413E3,2.21E2,2.655E3,3.27E2,5.3E1,1.373E3,1.201E3,2.15E2,2.6E1,2E1,7E1,1.48E2,7.06E2,6.41E2,4.1E1,7E0,3.3E1,3.9E1,5.9E1,3.8E1,1E1,1.74E2,1.8E2,9.7E1,9.4E1,1.1E1,1.4E1,2.8E1,2.4E1,3.8E1,2.8E1,3.81E2,2.43E2,1.5E1,1.1E1,1.23E2,2E1,8E0,1E1,1.7E1,2.9E1,5.4E1,4.3E1,1.2E1,1.8E1,1.1E1,2E1,1.7E1,6E0,6.93E2,1.109E4,1.9E2,4.223E3,1.76E2,4.5E1,5.03E2,2.152E3,1.83E2,1.44E2,2.7E1,2.6E1,2.17E2,1.156E3,2.13E2,9.88E2,7.4E1,1.41E2,7E0,1.9E1,7E0,1.3E1,5.3E1,1.7E1,7.4E1,7.4E1,4.95E2,2.11E2,1.49E2,4.92E2,6E0,3.5E1,2.7E1,1.2E1,2.1E1,3.8E1,2E1,1.8E1,5.5E1,1.19E2,2.9E1,1.51E2,3.7E1,6E1,8.8E1,6E0,7E0,7E0,9E0,1.9E1,1.1E1,1.3E1,1.7E1,2.1E1,1.6E1,1.2E1,1.96E2,1.85E2,2.05E2,3.8E1,9E0,6E0,4.2E1,8.1E1,1.2E1,8E0,1.1E1,6E0,2.3E1,6E0,2.8E1,2.6E1,1.7E1,2.6E1,6E0,6E0,1.2E1,6E0,1.4E1,6E0,8E0,9E0,1.5E1,6.78E2,8.768E3,2.322E3,2E1,1.7E2,4.189E3,3.4E1,1.7E2,6E0,2.7E1,1.8E1,3.1E2,1.93E2,1.898E3,2.54E2,3.7E1,1.46E2,7.3E1,7.1E1,1.2E1,1.5E1,7E0,1.9E1,1.7E2,4.7E1,8.03E2,3.53E2,1.11E2,1.02E2,7.09E2,2.79E2,6.3E1,1.1E1,6.7E1,7.4E1,1.2E1,4.1E1,9E0,8E0,3.2E1,4.2E1,4.7E1,2.7E1,4.89E2,6E0,1.82E2,2.9E1,1.27E2,2.2E1,3.74E2,1.18E2,7E0,2.8E1,1.9E1,8E0,6E0,1.5E1,2.4E1,1.4E1,1.2E1,8E0,1.1E1,7E0,3.3E1,2.2E1,8.5E1,3.4E1,7E0,2.2E1,8.6E1,6.5E1,1.4E1,2.3E1,5.1E1,9E0,1E1,7.8E1,6E0,1.3E1,6E0,1E1,6E0,6E0,1.24E2,7.2E1,1.64E2,2.1E1,7.4E1,1.31E2,1.3E1,2.5E1,3.2E1,1E1,2.6E1,5.5E1,6E0,6E0,1.7E1,6E0,2.1E1,7E0,7E0,1.9E1,7E0,1E1,6E0,2E1,9E0,6E0,6.48E2,3E1,8.31E2,7.937E3,2.097E3,2.25E2,1.4E1,6E0,1.11E2,5.9E1,3.78E2,3.811E3,7E0,2.7E1,2.1E1,1.49E2,7E0,2E1,8E0,1E1,1.11E2,1.99E2,8.1E1,1.12E2,1.171E3,7.27E2,1.97E2,5.7E1,1.8E1,1.9E1,1E2,4.6E1,5E1,2.3E1,3.2E1,3.9E1,8E0,7E0,7E0,1.2E1,1.57E2,1.3E1,2E1,2.7E1,6.52E2,1.51E2,7E0,3.46E2,4.6E1,6.5E1,1.4E1,8.8E1,2.49E2,4.6E2,1.4E1,2.65E2,1E1,5.3E1,1.8E1,4.9E1,5.4E1,2E1,6E0,6E0,3.5E1,6E0,2.4E1,8E0,2.1E1,2.1E1,1.9E1,2.8E1,1.7E1,1E1,3.7E2,1.19E2,9.8E1,8.4E1,1.9E1,1E1,9.3E1,3.4E1,1.2E1,1E1,3.09E2,6.5E1,9.6E1,2.2E1,1.4E1,1.4E1,1.3E1,1.1E1,1.6E1,1.7E1,1.1E1,1.1E1,1.7E1,6.8E1,9E0,2.5E1,2.2E1,6.4E1,4.7E1,1.8E1,1.7E1,6E0,1.4E1,3.7E1,7E1,8E0,9E0,1.15E2,6.1E1,1.1E1,6.3E1,1.01E2,1E1,1.1E1,2.4E1,5E1,1.02E2,2.9E1,1.1E1,1.4E1,2E1,1.2E1,6E0,2E1,3.6E1,1.9E1,6E0,1.1E1,8E0,1.3E1,5.79E2,6.9E1,2.4E1,6E0,8.19E2,1.2E1,4.321E3,3.616E3,2.082E3,1.5E1,1.44E2,8.1E1,8E0,6E0,9.4E1,1.7E1,2.3E1,3.6E1,3.05E2,7.3E1,3.585E3,2.26E2,1.5E1,1.2E1,6E0,1.5E1,1.3E2,1.9E1,1.3E1,7E0,1.4E1,9.7E1,1.53E2,4.6E1,4.9E1,3.2E1,1.8E1,9.4E1,6E0,1.165E3,6.2E2,1.07E2,1.74E2,2.3E1,3.5E1,2.2E1,1E1,8E0,1E1,9E0,5.7E1,4.3E1,2.6E1,2E1,4.4E1,6E0,1.4E1,9E0,1.2E1,2E1,2.5E1,1.4E1,3E1,1.27E2,6E0,7E0,1.2E1,8E0,1.2E1,1.5E1,9E1,5.62E2,1.1E1,1.4E2,2.26E2,1.2E2,3.9E1,7E0,3.3E1,3.2E1,7E0,7E0,6.9E1,1.9E1,2.3E2,1.9E1,8.6E1,3.74E2,8E0,6E0,2.14E2,5.1E1,9E0,4.4E1,7E0,1.1E1,2.3E1,2.6E1,1.9E1,3.5E1,2.7E1,8E0,9E0,1.5E1,8E0,1.3E1,1.4E1,7E0,9E0,1E1,2E1,8E0,7E0,1E1,3.15E2,5.5E1,4.1E1,7.8E1,1.2E1,8.6E1,9E0,7.5E1,1.6E1,7.7E1,1.8E1,1.6E1,1.15E2,1.94E2,4.7E1,1.8E1,7.2E1,2.4E1,1.4E1,8E0,7E0,7E0,6E0,8E0,7E0,6E0,1E1,6E0,1.1E1,6E0,8E0,9E0,1.8E1,5E1,1.8E1,7E0,6E0,1.6E1,3.9E1,2.5E1,3.3E1,1.4E1,6E0,8E0,9E0,2.8E1,6E0,6.4E1,1.09E2,6E0,4E1,2.1E1,1.2E1,5.1E1,4.7E1,5.4E1,1E1,1.4E1,1.2E1,3.8E1,3E1,7.2E1,1.8E1,1.1E1,1.2E1,8E0,6E0,6E0,1.4E1,6E0,1.2E1,2.4E1,9E0,1E1,7E0,6E0,4.04E2,1.75E2,5.8E1,1.1E1,8E0,1.6E1,4.73E2,3.46E2,6E0,6E0,5.49E2,3.772E3,3.608E3,8E0,6E0,2.076E3,7E0,8E0,1.34E2,1E1,7.5E1,6E0,7.5E1,1.9E1,8E0,9E0,1.7E1,6E0,3E1,6E0,1.19E2,1.86E2,6.6E1,7E0,1.424E3,2.161E3,2.15E2,1.1E1,8E0,7E0,6E0,6E0,7E0,8E0,5.3E1,7.7E1,1.2E1,7E0,6E0,8E0,2.1E1,7.6E1,7E0,1.46E2,9E0,3.7E1,2E1,2.9E1,2.6E1,6E0,8E0,1E1,2.5E1,6.9E1,5.11E2,6.54E2,2.61E2,3.59E2,1.4E1,9.3E1,6.3E1,1.11E2,6E0,1.7E1,2.5E1,1E1,1.3E1,9E0,4.4E1,1.3E1,2.2E1,2.1E1,1E1,1.6E1,2.9E1,1.5E1,7E0,7E0,1.1E1,9E0,6E0,1.9E1,8E0,6E0,1.8E1,1.2E1,1.05E2,2.2E1,6E0,6E0,6E0,6E0,8E0,7E0,8.4E1,6E0,2.23E2,3.39E2,6.5E1,7.5E1,1.52E2,7.4E1,8.7E1,3.3E1,8E0,3.1E1,1.1E1,2.2E1,6E0,2.6E1,3.7E1,3.2E1,1.3E1,6E0,7.7E1,1.53E2,9E0,1E1,3.8E1,4.8E1,3.33E2,4.1E1,2.06E2,8E0,1.9E1,3.2E1,2.4E1,2E1,1.9E1,7E0,6E0,2.9E1,2.1E1,6E0,7E0,7E0,1.3E1,7E0,2.88E2,2.7E1,4.4E1,1.1E1,8E0,3.3E1,4.3E1,3.5E1,6E0,6E0,7.1E1,1.5E1,4.2E1,3.3E1,9E0,7E0,3.3E1,4.4E1,6E1,5.5E1,1.14E2,8E1,3.1E1,1.6E1,7E0,1.1E1,1.8E1,5.4E1,8E0,1.6E1,1.2E1,6E0,9E0,4.1E1,8E0,8E0,3.3E1,6E0,2.7E1,6E0,1.9E1,9E0,4.7E1,1.7E1],"tree_param":{"num_deleted":"0","num_feature":"53","num_nodes":"825","size_leaf_vector":"0"}},{"base_weights":[6.9063416E0,3.8982172E0,8.959218E1,3.3192432E1,2.1413476E0,3.0654318E2,7.241893E1,1.8575224E1,1.4377777E2,8.5866845E-1,1.9537449E1,2.273156E2,6.441244E2,5.5502525E1,1.4912741E2,7.9427147E0,4.8334965E1,1.1984978E2,3.9158844E2,1.4013945E-1,5.2980547E0,3.4660435E1,1.3158963E1,3.755655E2,1.8171754E2,1.1008652E2,4.3913788E1,2.3897458E2,1.167985E2,6.390753E0,5.0664455E1,4.122672E1,1.0131014E2,1.0294145E2,3.2568832E2,5.0525183E2,2.4318443E2,-1.3097136E-1,1.6818815E0,1.37053E1,4.3218946E0,3.2003635E1,1.5553255E2,9.988403E0,1.9065434E1,2.0889641E2,1.0855594E2,8.768482E1,1.6895103E2,3.214892E1,6.1292267E1,1.599046E2,3.5482623E2,1.586432E2,8.677416E1,5.647452E0,6.5003555E1,1.0042901E2,3.271322E1,6.72553E1,3.1668646E1,1.695055E2,7.4301056E1,3.1068022E1,1.3209888E2,-2.5360316E-1,4.8072106E-1,5.0342765E0,1.3222228E0,1.1697613E1,2.1427795E1,2.9060097E0,5.7767034E0,3.9812557E1,2.2549063E1,6.6798534E0,1.1745511E1,1.5878632E1,3.0002586E1,1.3356728E2,6.446357E1,7.484861E1,1.11661514E2,2.0624716E2,9.8576126E1,4.6198723E1,2.8493494E1,1.5292976E2,5.6848328E1,8.226625E1,2.061791E2,4.1223816E2,2.303214E2,1.3677025E2,2.3336867E2,3.0054863E1,1.2339285E2,2.156083E0,1.1858569E1,2.6170437E1,4.1437008E1,8.6056114E1,4.0946735E1,1.4697258E1,5.5801575E1,3.809168E1,1.1593631E2,2.0237772E1,6.3701042E1,1.8631293E2,8.617512E1,1.7428975E0,-2.7219477E-1,1.6494579E0,3.129096E-1,4.1103096E0,9.99623E0,1.1799148E0,2.2884765E0,7.3364577E0,1.3528749E1,2.5864964E1,1.6182346E1,5.9562144E0,2.5661266E0,8.735926E0,5.189724E0,3.555853E1,7.173848E1,1.9230991E1,4.3903717E1,6.1945095E0,1.3663857E1,3.507144E1,1.1377808E1,1.4190162E1,2.1119732E1,4.2032833E1,2.584615E1,8.375831E1,3.8954746E1,1.283168E2,7.737345E1,1.19244965E2,2.4392183E2,6.168816E1,2.8439356E1,2.621315E1,4.7591763E1,8.255549E1,4.860205E1,1.3913564E2,2.4745018E2,7.372976E1,1.5112338E2,5.1271194E1,5.1763034E0,5.6049E1,1.3802019E2,1.6885381E0,1.2566525E1,1.6349787E1,7.6765537E0,1.2350349E2,6.024678E1,2.5905142E1,7.445605E1,9.603125E0,2.185989E1,4.8220642E1,9.582843E1,1.6321123E1,5.169895E1,1.2126123E1,3.342265E1,2.248526E2,1.2174006E2,1.21204834E2,6.779794E1,1.0396847E0,1.3247614E1,-3.6413932E-1,-8.8952795E-2,1.4225177E0,5.348964E0,2.1577431E-1,1.1225433E0,1.7070767E0,4.650905E0,6.10547E0,1.921434E1,2.0566132E0,1.0373154E0,7.8476677E0,2.159314E0,6.3752832E0,1.1206367E1,1.1962276E1,2.0001778E1,2.0446337E1,3.2628517E1,1.3604674E1,2.2214777E1,5.171942E0,1.1613041E1,2.4680789E0,7.0756803E0,6.2001038E0,1.0977834E1,4.272769E0,7.4115596E0,3.242274E1,6.3304615E1,8.0740135E1,4.276367E1,1.588792E1,2.6392515E1,3.262956E1,6.407921E1,9.247926E0,5.170728E0,1.6690876E1,7.387564E0,1.3387978E1,8.723415E0,1.699297E1,1.1650799E1,2.6110088E1,1.4955628E1,2.4462095E1,4.743032E1,3.733193E1,2.3461338E1,1.0992417E2,6.975107E1,2.2003391E1,5.276276E1,1.4553325E2,3.0746442E2,2.6126282E1,6.792966E1,1.8151968E1,3.765898E1,2.0128717E1,3.2183403E1,2.0906305E1,5.391933E1,6.147705E1,1.1895492E2,4.1203884E1,6.491146E1,2.048367E2,1.2586991E2,2.8327265E1,6.341967E1,2.655367E0,6.735085E0,1.0164577E2,1.6268521E2,8.9970666E-1,3.9742026E0,5.902681E0,2.130564E1,1.45019655E1,3.6545227E1,4.726017E0,1.3997413E1,6.9674965E1,1.9044781E2,3.772568E1,1.0359958E2,6.668108E0,3.162904E1,6.655885E0,1.3900363E1,2.7289694E1,1.0087498E1,2.9632742E1,6.1065647E1,1.9246767E1,8.252959E0,1.5607483E2,2.6238263E2,3.9140686E1,8.0621155E1,2.4084121E-1,3.248062E0,-3.6932218E-1,1.9259722E0,8.029087E-1,-1.2841518E-1,2.3913922E0,1.1582264E0,1.2936444E0,1.2116136E1,1.9274908E-1,2.3682442E0,9.3433803E-1,4.777419E0,2.7713567E-1,1.9255638E0,3.5896368E0,5.5105076E0,1.612082E0,8.496229E0,1.2236301E0,2.6627772E0,7.809927E-1,1.441727E0,1.7345728E0,3.3269284E0,7.66525E0,4.5541077E0,1.3776828E1,6.6677876E0,1.829407E1,1.0978413E1,2.946791E1,1.392926E1,2.0191927E1,4.0403893E1,9.582088E0,1.5268498E1,4.7254777E0,1.0302112E1,1.5671905E1,7.610532E0,2.1918812E0,3.4246814E0,1.3119152E1,3.1044805E0,5.3793554E0,8.780188E0,1.5202136E1,9.258357E0,1.5123524E1,4.171471E0,1.5133393E1,6.859214E0,3.0211367E1,4.6570286E1,3.7199356E1,9.0910995E1,6.0659176E1,1.0077484E2,1.431451E1,2.3373026E1,3.529378E1,2.1840923E1,2.1236206E1,3.7130886E1,4.888305E0,1.02359915E1,4.3337445E0,6.2633367E0,1.1222823E1,1.682286E1,8.267528E0,2.0632822E1,1.4050621E1,2.0500782E1,8.278048E0,1.4112233E1,2.251416E1,3.1570086E1,1.7528803E1,9.252656E0,5.637071E1,3.2561142E1,2.7823832E1,1.9674946E1,8.706526E1,5.4886795E1,7.376399E1,3.8221996E1,2.3333193E1,1.1673669E1,1.8601736E1,4.6362778E1,1.682396E1,2.698475E1,2.5157465E1,4.1292713E1,3.3734306E1,5.938032E1,7.965687E1,3.1926832E1,7.528386E1,1.4636337E2,5.1478466E1,2.912489E1,4.9653885E1,7.663471E1,8.880478E1,1.4755042E2,5.1938774E1,1.3453578E2,8.2063034E-2,1.6468757E0,6.005524E0,1.8558446E0,7.7704782E0,3.2970486E0,7.576141E0,1.770287E1,2.9777205E0,7.76621E0,1.1997545E1,2.3496994E1,2.243132E1,5.077691E1,1.7517625E0,8.287249E0,1.5856104E1,5.2091985E0,1.2347244E1,2.995547E1,5.5242343E0,1.2489189E1,1.7090086E1,3.598616E1,7.9489426E1,4.6521435E1,1.0166423E1,5.068692E0,2.5058165E1,4.657031E1,6.2398506E1,1.03537544E2,1.0074059E-1,1.4438533E0,1.3360806E0,7.1296144E0,-1.294459E-1,-3.874346E-1,6.1431985E0,-3.2021043E-1,4.997906E-1,2.3725672E0,-1.4053962E-1,2.8802924E0,1.2363913E0,3.4120677E0,6.603056E-1,1.4521387E0,4.125608E-1,1.9899218E0,1.8460357E-1,1.8490062E0,5.9638395E0,6.471559E-1,2.0694847E0,5.3370076E-1,2.1856778E0,6.769269E-1,2.8835752E0,5.0518637E0,7.5687447E0,4.7067847E0,9.9348545E0,4.4052324E0,8.711875E-1,1.8424902E0,1.5312035E0,3.1969445E0,4.797227E0,7.526944E-1,3.8885038E0,1.3752491E0,2.4460433E0,1.2025901E0,2.2462194E0,4.354156E0,8.974303E0,3.8742826E0,2.9694014E0,5.2318797E0,1.07776985E1,2.634232E1,9.015135E0,1.3586538E1,1.5754164E1,8.76641E0,3.313288E0,5.5539713E0,3.641607E0,1.8693879E0,5.4948606E0,3.1741114E0,7.0433974E-1,4.349617E0,5.9221826E0,2.9235442E0,1.0902565E1,4.7186017E0,1.0480691E1,1.8751604E1,7.357539E0,1.1118806E1,3.591045E0,5.430184E0,2.4014814E1,7.82061E0,5.981888E0,8.940958E0,3.80901E1,2.7324358E1,6.481031E1,3.6439205E1,2.005122E1,1.2206771E1,2.6882578E1,1.5706669E1,2.3885836E1,4.656798E1,1.8577648E1,2.9051882E1,6.25664E0,2.8216412E0,8.5649185E0,1.3341359E1,5.233676E0,3.2639403E0,4.252925E0,6.883256E0,9.420212E0,1.4152769E1,1.5432721E1,3.12279E1,4.5777926E0,9.326181E0,8.042862E0,1.6462088E1,2.207646E1,1.3193823E1,9.457275E0,4.7388988E0,1.5444813E1,8.892428E0,2.9722534E1,1.8505104E1,1.248486E1,1.9879562E1,2.2324438E1,3.3840477E1,2.1558746E1,9.059927E0,6.393812E1,3.5714127E1,5.8245586E1,9.3156265E1,1.1715029E1,1.9583426E1,2.1239574E1,3.391597E1,1.2844596E1,2.693624E1,3.539531E1,6.553638E1,4.178998E1,7.174691E1,1.9816458E1,4.293634E1,2.1720856E1,5.7355637E1,1.6985264E1,4.5109158E1,6.874507E1,2.674317E1,-4.479177E-2,6.181209E-1,3.5680778E0,1.2814457E0,5.089143E0,1.3525938E1,1.1036426E0,4.091778E0,9.61161E0,1.008009E0,1.6215445E1,3.0114336E1,6.8611693E0,2.1907506E0,6.331367E0,1.2893517E1,1.704675E1,8.623958E0,2.6912246E0,5.6204873E-1,1.0130648E1,3.3443198E0,9.012409E0,1.8143953E1,1.7987843E1,3.294572E1,8.189388E0,2.3549341E1,4.217467E1,2.3048738E1,5.9279976E1,1.0277856E2,3.365764E1,5.606227E1,-3.9490047E-1,3.1135923E-1,2.3297617E0,6.0185117E-1,-2.2670898E-1,1.1423372E0,-4.2399114E-1,-2.3465326E-1,-4.3639797E-1,-1.4168034E-1,4.2251013E-3,9.708316E-1,7.4152225E-1,3.0362759E0,1.6825801E-1,-1.800638E-1,5.1068144E0,3.337381E-1,1.6079068E0,4.5224708E-1,4.232336E0,9.381633E-1,1.843528E0,4.6702614E-1,1.2099079E0,2.1304162E0,1.0566305E0,1.733549E-1,1.4171479E0,4.3445937E-2,1.5931939E0,3.3392467E0,3.9176783E-1,2.3050208E0,2.6829493E0,1.7304037E0,2.3583589E0,4.0072384E0,3.5664093E0,6.8883057E0,5.4544973E0,1.1908269E1,4.075146E0,6.167022E0,1.216151E1,5.9708395E0,2.1770313E0,7.2792244E-1,7.099804E-1,2.3511674E0,1.2251164E0,3.0955632E0,4.360308E0,2.4660456E0,4.6846156E0,7.248328E-1,3.8029805E-1,9.848243E0,1.0128647E0,1.9041878E0,2.0405889E0,6.3189054E0,6.196905E-1,1.45377E0,2.5872498E0,4.3080497E-1,1.8783159E0,5.3992457E0,4.2524095E0,1.0178251E1,5.8930736E0,3.256536E0,1.0775479E1,5.790595E0,1.2066784E1,1.9675697E1,4.3693495E0,2.1131704E0,6.44307E0,3.6603067E0,4.230975E0,1.984118E0,1.455029E0,2.4929154E0,3.25873E0,7.8243403E0,2.868703E0,4.924599E0,4.7210727E0,6.7145805E0,1.1271195E0,3.8009465E0,7.286665E0,1.3155644E1,1.250738E1,6.890581E0,1.3259469E1,2.2160229E1,8.753172E0,3.6419828E0,8.829736E0,1.4902746E1,4.818385E0,3.1988688E0,7.979654E0,4.8866673E0,3.119138E0,1.1404852E1,5.7114344E0,1.2401175E1,1.3651489E1,8.029557E0,2.0883944E1,4.4965168E1,3.924813E1,2.493019E1,1.3672973E1,2.5452826E1,1.571621E1,9.576217E0,6.3808203E0,1.0373674E1,1.6361935E1,9.509648E0,3.4240718E0,6.9856205E0,2.5762217E0,5.341651E0,5.3599005E0,1.7841026E0,7.3317723E0,3.163558E0,1.2050649E1,7.974157E0,1.5057007E1,8.591575E0,2.377441E1,1.2891278E1,5.1591434E0,1.9108806E0,8.083537E0,1.2305561E1,9.535873E0,3.907858E0,1.763212E1,8.992929E0,2.506579E1,1.6909298E1,7.429614E0,1.3738323E1,1.7769252E0,6.84522E0,9.612469E0,1.7160059E1,5.621876E0,1.1174933E1,2.6578054E1,1.4748567E1,2.3516514E1,1.2046261E1,5.968511E0,1.515184E1,2.0588081E1,1.2160961E1,1.2595479E1,2.5586332E1,2.1440567E1,3.0070059E1,4.6646236E1,2.7300274E1,2.3072466E1,6.132578E1,8.170665E0,2.205284E1,5.1936726E1,3.035689E1,3.7041336E1,1.2624554E1],"categories":[],"categories_nodes":[],"categories_segments":[],"categories_sizes":[],"default_left":[true,true,true,true,true,true,true,true,true,true,true,true,false,true,true,true,true,true,true,true,true,true,true,false,true,true,true,true,true,true,true,true,true,true,false,false,false,true,true,true,true,true,false,true,true,false,true,true,true,true,true,true,true,true,true,true,false,false,true,true,true,false,true,true,true,true,true,true,true,true,true,true,true,true,true,true,true,true,true,false,false,true,true,true,false,true,true,false,true,false,true,false,false,true,false,true,true,true,true,false,false,true,true,true,true,true,false,true,false,true,true,true,true,true,true,true,true,true,true,true,true,true,true,true,true,true,true,true,true,true,true,true,true,false,true,true,true,true,true,true,true,false,false,false,true,true,true,true,true,true,true,false,false,false,true,true,true,false,true,true,true,true,true,true,true,true,false,true,true,true,false,false,false,true,false,true,false,false,true,true,false,true,true,true,true,true,true,true,true,true,false,true,true,false,true,true,true,true,true,false,true,true,false,true,true,true,true,true,true,true,true,true,true,true,false,true,true,true,false,true,true,false,false,true,true,true,true,true,true,false,true,false,true,false,true,false,false,false,false,false,true,true,true,true,true,false,true,true,true,true,true,false,true,false,false,false,false,true,false,true,true,true,false,true,false,true,true,false,false,true,false,false,false,true,true,true,true,true,true,false,true,false,false,true,true,true,true,true,true,true,true,true,true,true,false,true,true,true,false,false,true,true,true,false,true,true,true,true,true,true,true,true,true,false,false,true,true,false,true,false,false,false,false,true,false,false,false,true,true,false,true,true,true,true,true,false,true,true,true,true,true,false,false,false,false,true,true,true,true,false,false,true,true,true,true,true,true,true,false,true,true,true,true,true,false,true,false,false,false,true,true,false,true,true,false,false,false,false,false,true,true,true,true,false,true,false,true,false,false,true,true,true,false,false,false,false,false,true,true,true,true,false,false,true,true,true,true,true,false,false,false,true,true,true,false,false,true,false,false,true,true,true,true,false,false,false,false,false,false,true,false,true,false,true,true,false,true,true,true,true,true,true,true,true,true,false,false,true,false,false,true,true,true,true,false,true,true,true,true,true,false,true,true,true,true,false,true,true,true,true,true,true,true,true,false,false,true,false,false,true,true,false,false,true,true,true,true,true,true,false,false,true,true,true,false,true,true,true,true,true,true,false,true,true,true,true,true,false,false,true,true,false,false,false,false,false,false,false,false,true,true,true,true,true,true,true,true,true,false,true,true,true,true,true,false,true,true,true,true,false,false,false,false,true,false,true,false,false,false,false,false,true,true,true,false,false,true,true,false,false,false,false,false,false,true,true,true,false,true,false,false,false,false,false,false,false,false,false,false,false,false,false,false,false,false,false,false,false,false,false,false,false,false,false,false,false,false,false,false,false,false,false,false,false,false,false,false,false,false,false,false,false,false,false,false,false,false,false,false,false,false,false,false,false,false,false,false,false,false,false,false,false,false,false,false,false,false,false,false,false,false,false,false,false,false,false,false,false,false,false,false,false,false,false,false,false,false,false,false,false,false,false,false,false,false,false,false,false,false,false,false,false,false,false,false,false,false,false,false,false,false,false,false,false,false,false,false,false,false,false,false,false,false,false,false,false,false,false,false,false,false,false,false,false,false,false,false,false,false,false,false,false,false,false,false,false,false,false,false,false,false,false,false,false,false,false,false,false,false,false,false,false,false,false,false,false,false,false,false,false,false,false,false,false,false,false,false,false,false,false,false,false,false,false,false,false,false,false,false,false,false,false,false,false,false,false,false,false,false,false,false,false,false,false,false,false,false,false,false,false,false],"id":1,"left_children":[1,3,5,7,9,11,13,15,17,19,21,23,-1,25,27,29,31,33,35,37,39,41,43,-1,45,47,49,51,53,55,57,59,61,63,-1,-1,-1,65,67,69,71,73,-1,75,77,-1,79,81,83,85,87,89,91,93,95,97,-1,-1,99,101,103,-1,105,107,109,111,113,115,117,119,121,123,125,127,129,131,133,135,137,-1,-1,139,141,143,-1,145,147,-1,149,-1,151,-1,-1,153,-1,155,157,159,161,-1,-1,163,165,167,169,171,-1,173,-1,175,177,179,181,183,185,187,189,191,193,195,197,199,201,203,205,207,209,211,213,215,217,219,221,-1,223,225,227,229,231,233,235,-1,-1,-1,237,239,241,243,245,247,249,-1,-1,-1,251,253,255,-1,257,259,261,263,265,267,269,271,-1,273,275,277,-1,-1,-1,279,-1,281,-1,-1,283,285,-1,287,289,291,293,295,297,299,301,303,-1,305,307,-1,309,311,313,315,317,-1,319,321,-1,323,325,327,329,331,333,335,337,339,341,343,-1,345,347,349,-1,351,353,-1,-1,355,357,359,361,363,365,-1,367,-1,369,-1,371,-1,-1,-1,-1,-1,373,375,377,379,381,-1,383,385,387,389,391,-1,393,-1,-1,-1,-1,395,-1,397,399,401,-1,403,-1,405,407,-1,-1,409,-1,-1,-1,411,413,415,417,419,421,-1,423,-1,-1,425,427,429,431,433,435,437,439,441,443,445,-1,447,449,451,-1,-1,453,455,457,-1,459,461,463,465,467,469,471,473,475,-1,-1,477,479,-1,481,-1,-1,-1,-1,483,-1,-1,-1,485,487,-1,489,491,493,495,497,-1,499,501,503,505,507,-1,-1,-1,-1,509,511,513,515,-1,-1,517,519,521,523,525,527,529,-1,531,533,535,537,539,-1,541,-1,-1,-1,543,545,-1,547,549,-1,-1,-1,-1,-1,551,553,555,557,-1,559,-1,561,-1,-1,563,565,567,-1,-1,-1,-1,-1,569,571,573,575,-1,-1,577,579,581,583,585,-1,-1,-1,587,589,591,-1,-1,593,-1,-1,595,597,599,601,-1,-1,-1,-1,-1,-1,603,-1,605,-1,607,609,-1,611,613,615,617,619,621,623,625,627,-1,-1,629,-1,-1,631,633,635,637,-1,639,641,643,645,647,-1,649,651,653,655,-1,657,659,661,663,665,667,669,671,-1,-1,673,-1,-1,675,677,-1,-1,679,681,683,685,687,689,-1,-1,691,693,695,-1,697,699,701,703,705,707,-1,709,711,713,715,717,-1,-1,719,721,-1,-1,-1,-1,-1,-1,-1,-1,723,725,727,729,731,733,735,737,739,-1,741,743,745,747,749,-1,751,753,755,757,-1,-1,-1,-1,759,-1,761,-1,-1,-1,-1,-1,763,765,767,-1,-1,769,771,-1,-1,-1,-1,-1,-1,773,775,777,-1,779,-1,-1,-1,-1,-1,-1,-1,-1,-1,-1,-1,-1,-1,-1,-1,-1,-1,-1,-1,-1,-1,-1,-1,-1,-1,-1,-1,-1,-1,-1,-1,-1,-1,-1,-1,-1,-1,-1,-1,-1,-1,-1,-1,-1,-1,-1,-1,-1,-1,-1,-1,-1,-1,-1,-1,-1,-1,-1,-1,-1,-1,-1,-1,-1,-1,-1,-1,-1,-1,-1,-1,-1,-1,-1,-1,-1,-1,-1,-1,-1,-1,-1,-1,-1,-1,-1,-1,-1,-1,-1,-1,-1,-1,-1,-1,-1,-1,-1,-1,-1,-1,-1,-1,-1,-1,-1,-1,-1,-1,-1,-1,-1,-1,-1,-1,-1,-1,-1,-1,-1,-1,-1,-1,-1,-1,-1,-1,-1,-1,-1,-1,-1,-1,-1,-1,-1,-1,-1,-1,-1,-1,-1,-1,-1,-1,-1,-1,-1,-1,-1,-1,-1,-1,-1,-1,-1,-1,-1,-1,-1,-1,-1,-1,-1,-1,-1,-1,-1,-1,-1,-1,-1,-1,-1,-1,-1,-1,-1,-1,-1,-1,-1,-1,-1,-1,-1,-1,-1,-1,-1,-1,-1,-1,-1,-1,-1,-1,-1,-1,-1,-1,-1,-1,-1,-1,-1,-1,-1,-1,-1,-1,-1],"loss_changes":[6.405425E6,1.2789132E6,3.345882E6,2.2700565E6,5.2314825E5,1.6188E6,1.0804355E6,3.9292703E5,9.2552475E5,6.9655516E4,1.5484725E5,3.03548E5,0E0,4.3099925E5,4.1069175E5,6.0475625E4,1.1895869E5,4.9201125E5,1.13284E5,7.856628E3,2.4905898E4,1.4820275E5,2.1045781E4,0E0,6.4814875E4,1.4342538E5,1.1456925E5,3.0051675E5,1.282025E5,3.823321E4,2.5301367E4,7.001722E4,5.7397562E4,2.9138175E5,0E0,0E0,0E0,1.1992788E3,3.3826172E3,4.6487188E3,5.6003984E3,3.365472E4,0E0,4.2235156E3,1.3291156E4,0E0,6.8290938E3,1.9033812E4,6.365975E4,1.62480625E4,8.456225E4,7.285531E4,1.2273625E4,4.3267625E4,1.375265E5,1.8970756E4,0E0,0E0,3.4252148E2,3.456222E4,8.682769E4,0E0,3.9303797E4,1.3554629E4,2.3291575E5,4.947763E2,5.231443E2,1.2059453E3,3.4656445E2,1.9211758E3,1.071041E3,1.4195264E3,2.2891992E3,3.2081594E4,1.4318922E4,7.9327734E2,3.7350938E3,2.4259375E3,3.3138672E3,0E0,0E0,1.624525E4,6.6329375E3,3.6469125E4,0E0,1.7226328E4,1.0685344E4,0E0,4.2625062E4,0E0,7.0751875E3,0E0,0E0,2.3241188E4,0E0,1.4513893E4,3.2651625E4,2.714231E3,5.790926E3,0E0,0E0,3.508497E4,1.520834E4,4.4239766E3,2.2081875E4,4.1922617E3,0E0,3.1240986E3,0E0,8.4614375E4,2.7832406E4,9.813292E2,2.2227826E2,2.7364606E2,1.8347015E2,2.921704E2,1.3890361E3,2.7490356E2,2.1641699E2,2.1496973E2,1.5554824E3,5.4228906E2,1.9536328E2,5.5217334E2,5.339004E2,1.1883379E3,2.2582832E3,1.7697844E4,4.1110625E3,4.0577344E3,4.2780547E3,7.149326E2,1.8067041E2,0E0,2.423043E3,1.4817109E3,1.8550645E3,8.3135156E2,9.867578E2,9.925219E3,2.1159453E3,0E0,0E0,0E0,3.6527938E4,6.2157812E3,2.5411738E3,8.324609E3,3.6006562E3,3.2583656E4,1.7716906E4,0E0,0E0,0E0,1.4910625E4,2.384504E3,3.7130157E1,0E0,1.30705625E4,9.682435E2,1.2719055E3,5.1049766E3,3.011086E3,4.7990297E4,2.3429516E4,2.5418652E3,0E0,8.7002E2,3.0486465E3,1.6336344E4,0E0,0E0,0E0,4.4790454E2,0E0,2.8741875E4,0E0,0E0,1.1176078E4,2.0562299E2,0E0,1.0499512E2,1.5531302E2,7.840283E1,5.0574384E2,1.0297754E2,1.6750296E2,1.3212997E1,1.5172583E2,3.1932434E2,0E0,1.527633E2,1.9665723E2,0E0,1.5243213E2,1.1544385E2,7.146643E1,7.024551E2,1.4864814E3,0E0,4.4125586E2,2.1017578E1,0E0,2.3304199E2,1.4065869E2,3.1535986E2,5.8326746E2,1.7723364E2,7.018301E2,8.1404297E2,1.2908906E3,5.0378594E3,1.2472945E4,2.3357188E3,0E0,1.1964531E3,1.5790195E3,2.3718555E2,0E0,2.0841895E2,1.4203809E2,0E0,0E0,1.8117656E3,9.587217E2,8.472832E2,9.375078E2,5.494336E1,3.5142822E2,0E0,1.5854688E2,0E0,4.2713867E2,0E0,3.9715938E3,0E0,0E0,0E0,0E0,0E0,2.3803281E3,3.317959E2,1.9573672E3,2.3782031E3,6.8333594E3,0E0,4.2191016E2,1.6259422E4,1.0526406E4,1.3269391E4,5.317078E3,0E0,5.3794062E3,0E0,0E0,0E0,0E0,1.9170203E4,0E0,2.4545392E2,5.8267773E2,4.7382202E1,0E0,2.9695273E3,0E0,5.828025E2,7.0598535E2,0E0,0E0,2.853209E3,0E0,0E0,0E0,3.615017E2,4.2733252E2,1.0242969E3,1.2827881E2,2.0147227E3,8.09225E3,0E0,4.5957153E1,0E0,0E0,2.9782227E2,4.3969375E3,1.4517765E1,2.2053937E2,3.804016E1,1.9142032E2,8.77873E1,1.5449158E2,7.476639E1,3.5773743E1,7.154257E0,0E0,2.7531212E1,1.3228387E2,1.07588455E2,0E0,0E0,1.0862396E1,7.525342E1,1.3310913E2,0E0,7.394287E1,2.7185715E1,1.026969E2,1.2936249E2,1.1485535E2,8.638208E1,8.347095E1,1.4388403E2,1.5612427E1,0E0,0E0,8.049761E2,5.3293555E2,0E0,6.916992E1,0E0,0E0,0E0,0E0,1.1614697E2,0E0,0E0,0E0,4.3781055E2,1.236521E2,0E0,4.774095E1,9.333203E1,1.554403E2,3.397456E2,2.1878467E2,0E0,5.5912695E2,1.1760952E3,5.072119E2,3.0762344E3,2.4429336E3,0E0,0E0,0E0,0E0,1.0853027E3,1.427793E2,1.2027637E3,4.2506836E2,0E0,0E0,1.9108551E1,1.3481885E2,8.6894775E1,6.793677E1,7.539785E2,1.5606191E3,7.463496E2,0E0,7.8031055E2,2.6137305E2,1.8889673E2,3.634756E2,2.3024805E2,0E0,2.4519531E1,0E0,0E0,0E0,7.172656E1,5.0455957E2,0E0,1.3608008E3,1.7965625E3,0E0,0E0,0E0,0E0,0E0,9.970996E2,8.326621E2,1.2309492E3,5.115E3,0E0,4.8221875E2,0E0,1.1490918E3,0E0,0E0,9.772297E3,1.0294262E4,9.096355E3,0E0,0E0,0E0,0E0,0E0,1.31519785E1,1.4286133E2,4.1357446E2,1.1153342E2,0E0,0E0,6.0529614E2,1.2654922E3,2.1112457E2,2.1999829E2,6.195166E2,0E0,0E0,0E0,1.3017384E1,2.8503247E2,2.1225537E2,0E0,0E0,4.4517773E2,0E0,0E0,5.5453955E2,7.092578E2,2.3791719E3,1.4268242E3,0E0,0E0,0E0,0E0,0E0,0E0,8.369864E0,0E0,1.4648811E1,0E0,7.658037E1,4.542517E1,0E0,2.2857249E-1,3.68781E1,3.02247E1,5.1388824E1,9.468495E1,8.886448E0,6.705365E1,2.0864822E1,2.3217438E1,0E0,0E0,1.999424E1,0E0,0E0,7.376059E0,3.2176056E1,4.38477E1,2.3756561E0,0E0,2.6549652E1,4.9088196E1,1.8276685E2,4.4966553E1,5.0956543E1,0E0,1.4504318E1,2.540657E1,2.4458572E1,9.1283325E1,0E0,1.24010864E2,3.935065E2,1.3627197E2,1.4413257E2,1.9157639E1,2.5507187E1,9.853247E1,1.04525635E2,0E0,0E0,5.624634E0,0E0,0E0,3.6900244E2,2.5304102E2,0E0,0E0,4.7799744E1,9.595581E1,1.596272E2,1.9789673E2,1.2035516E2,1.1685327E2,0E0,0E0,3.2067627E1,2.2511063E1,2.6342896E1,0E0,3.0233398E1,2.4417969E1,2.0147095E2,2.2354248E2,2.4691309E2,3.046543E2,0E0,1.834925E2,3.0938184E2,2.7247705E2,4.502453E3,2.904E3,0E0,0E0,6.166621E2,6.157344E2,0E0,0E0,0E0,0E0,0E0,0E0,0E0,0E0,6.812451E1,1.8013428E1,1.567893E2,6.0540527E1,4.7828827E1,7.3569336E1,3.1090723E2,1.8241309E2,1.7075098E3,0E0,6.3010864E1,4.780879E2,8.6207275E1,2.2595801E2,1.6311523E2,0E0,2.5383105E2,8.765845E1,3.9526855E2,6.408179E1,0E0,0E0,0E0,0E0,1.2360986E2,0E0,2.5678906E2,0E0,0E0,0E0,0E0,0E0,5.6130615E2,1.5976367E2,5.79499E2,0E0,0E0,4.230703E2,2.7339219E3,0E0,0E0,0E0,0E0,0E0,0E0,5.6627344E3,1.3385479E3,8.406953E2,0E0,1.4225156E3,0E0,0E0,0E0,0E0,0E0,0E0,0E0,0E0,0E0,0E0,0E0,0E0,0E0,0E0,0E0,0E0,0E0,0E0,0E0,0E0,0E0,0E0,0E0,0E0,0E0,0E0,0E0,0E0,0E0,0E0,0E0,0E0,0E0,0E0,0E0,0E0,0E0,0E0,0E0,0E0,0E0,0E0,0E0,0E0,0E0,0E0,0E0,0E0,0E0,0E0,0E0,0E0,0E0,0E0,0E0,0E0,0E0,0E0,0E0,0E0,0E0,0E0,0E0,0E0,0E0,0E0,0E0,0E0,0E0,0E0,0E0,0E0,0E0,0E0,0E0,0E0,0E0,0E0,0E0,0E0,0E0,0E0,0E0,0E0,0E0,0E0,0E0,0E0,0E0,0E0,0E0,0E0,0E0,0E0,0E0,0E0,0E0,0E0,0E0,0E0,0E0,0E0,0E0,0E0,0E0,0E0,0E0,0E0,0E0,0E0,0E0,0E0,0E0,0E0,0E0,0E0,0E0,0E0,0E0,0E0,0E0,0E0,0E0,0E0,0E0,0E0,0E0,0E0,0E0,0E0,0E0,0E0,0E0,0E0,0E0,0E0,0E0,0E0,0E0,0E0,0E0,0E0,0E0,0E0,0E0,0E0,0E0,0E0,0E0,0E0,0E0,0E0,0E0,0E0,0E0,0E0,0E0,0E0,0E0,0E0,0E0,0E0,0E0,0E0,0E0,0E0,0E0,0E0,0E0,0E0,0E0,0E0,0E0,0E0,0E0,0E0,0E0,0E0,0E0,0E0,0E0,0E0,0E0,0E0,0E0,0E0,0E0,0E0,0E0,0E0,0E0,0E0,0E0,0E0,0E0,0E0,0E0,0E0,0E0,0E0,0E0,0E0,0E0,0E0,0E0,0E0,0E0,0E0,0E0,0E0,0E0,0E0],"parents":[2147483647,0,0,1,1,2,2,3,3,4,4,5,5,6,6,7,7,8,8,9,9,10,10,11,11,13,13,14,14,15,15,16,16,17,17,18,18,19,19,20,20,21,21,22,22,24,24,25,25,26,26,27,27,28,28,29,29,30,30,31,31,32,32,33,33,37,37,38,38,39,39,40,40,41,41,43,43,44,44,46,46,47,47,48,48,49,49,50,50,51,51,52,52,53,53,54,54,55,55,58,58,59,59,60,60,62,62,63,63,64,64,65,65,66,66,67,67,68,68,69,69,70,70,71,71,72,72,73,73,74,74,75,75,76,76,77,77,78,78,81,81,82,82,83,83,85,85,86,86,88,88,90,90,93,93,95,95,96,96,97,97,98,98,101,101,102,102,103,103,104,104,105,105,107,107,109,109,110,110,111,111,112,112,113,113,114,114,115,115,116,116,117,117,118,118,119,119,120,120,121,121,122,122,123,123,124,124,125,125,126,126,127,127,128,128,129,129,130,130,131,131,132,132,134,134,135,135,136,136,137,137,138,138,139,139,140,140,144,144,145,145,146,146,147,147,148,148,149,149,150,150,154,154,155,155,156,156,158,158,159,159,160,160,161,161,162,162,163,163,164,164,165,165,167,167,168,168,169,169,173,173,175,175,178,178,179,179,181,181,182,182,183,183,184,184,185,185,186,186,187,187,188,188,189,189,191,191,192,192,194,194,195,195,196,196,197,197,198,198,200,200,201,201,203,203,204,204,205,205,206,206,207,207,208,208,209,209,210,210,211,211,212,212,213,213,215,215,216,216,217,217,219,219,220,220,223,223,224,224,225,225,226,226,227,227,228,228,230,230,232,232,234,234,240,240,241,241,242,242,243,243,244,244,246,246,247,247,248,248,249,249,250,250,252,252,257,257,259,259,260,260,261,261,263,263,265,265,266,266,269,269,273,273,274,274,275,275,276,276,277,277,278,278,280,280,283,283,284,284,285,285,286,286,287,287,288,288,289,289,290,290,291,291,292,292,293,293,295,295,296,296,297,297,300,300,301,301,302,302,304,304,305,305,306,306,307,307,308,308,309,309,310,310,311,311,312,312,315,315,316,316,318,318,323,323,327,327,328,328,330,330,331,331,332,332,333,333,334,334,336,336,337,337,338,338,339,339,340,340,345,345,346,346,347,347,348,348,351,351,352,352,353,353,354,354,355,355,356,356,357,357,359,359,360,360,361,361,362,362,363,363,365,365,369,369,370,370,372,372,373,373,379,379,380,380,381,381,382,382,384,384,386,386,389,389,390,390,391,391,397,397,398,398,399,399,400,400,403,403,404,404,405,405,406,406,407,407,411,411,412,412,413,413,416,416,419,419,420,420,421,421,422,422,429,429,431,431,433,433,434,434,436,436,437,437,438,438,439,439,440,440,441,441,442,442,443,443,444,444,447,447,450,450,451,451,452,452,453,453,455,455,456,456,457,457,458,458,459,459,461,461,462,462,463,463,464,464,466,466,467,467,468,468,469,469,470,470,471,471,472,472,473,473,476,476,479,479,480,480,483,483,484,484,485,485,486,486,487,487,488,488,491,491,492,492,493,493,495,495,496,496,497,497,498,498,499,499,500,500,502,502,503,503,504,504,505,505,506,506,509,509,510,510,519,519,520,520,521,521,522,522,523,523,524,524,525,525,526,526,527,527,529,529,530,530,531,531,532,532,533,533,535,535,536,536,537,537,538,538,543,543,545,545,551,551,552,552,553,553,556,556,557,557,564,564,565,565,566,566,568,568],"right_children":[2,4,6,8,10,12,14,16,18,20,22,24,-1,26,28,30,32,34,36,38,40,42,44,-1,46,48,50,52,54,56,58,60,62,64,-1,-1,-1,66,68,70,72,74,-1,76,78,-1,80,82,84,86,88,90,92,94,96,98,-1,-1,100,102,104,-1,106,108,110,112,114,116,118,120,122,124,126,128,130,132,134,136,138,-1,-1,140,142,144,-1,146,148,-1,150,-1,152,-1,-1,154,-1,156,158,160,162,-1,-1,164,166,168,170,172,-1,174,-1,176,178,180,182,184,186,188,190,192,194,196,198,200,202,204,206,208,210,212,214,216,218,220,222,-1,224,226,228,230,232,234,236,-1,-1,-1,238,240,242,244,246,248,250,-1,-1,-1,252,254,256,-1,258,260,262,264,266,268,270,272,-1,274,276,278,-1,-1,-1,280,-1,282,-1,-1,284,286,-1,288,290,292,294,296,298,300,302,304,-1,306,308,-1,310,312,314,316,318,-1,320,322,-1,324,326,328,330,332,334,336,338,340,342,344,-1,346,348,350,-1,352,354,-1,-1,356,358,360,362,364,366,-1,368,-1,370,-1,372,-1,-1,-1,-1,-1,374,376,378,380,382,-1,384,386,388,390,392,-1,394,-1,-1,-1,-1,396,-1,398,400,402,-1,404,-1,406,408,-1,-1,410,-1,-1,-1,412,414,416,418,420,422,-1,424,-1,-1,426,428,430,432,434,436,438,440,442,444,446,-1,448,450,452,-1,-1,454,456,458,-1,460,462,464,466,468,470,472,474,476,-1,-1,478,480,-1,482,-1,-1,-1,-1,484,-1,-1,-1,486,488,-1,490,492,494,496,498,-1,500,502,504,506,508,-1,-1,-1,-1,510,512,514,516,-1,-1,518,520,522,524,526,528,530,-1,532,534,536,538,540,-1,542,-1,-1,-1,544,546,-1,548,550,-1,-1,-1,-1,-1,552,554,556,558,-1,560,-1,562,-1,-1,564,566,568,-1,-1,-1,-1,-1,570,572,574,576,-1,-1,578,580,582,584,586,-1,-1,-1,588,590,592,-1,-1,594,-1,-1,596,598,600,602,-1,-1,-1,-1,-1,-1,604,-1,606,-1,608,610,-1,612,614,616,618,620,622,624,626,628,-1,-1,630,-1,-1,632,634,636,638,-1,640,642,644,646,648,-1,650,652,654,656,-1,658,660,662,664,666,668,670,672,-1,-1,674,-1,-1,676,678,-1,-1,680,682,684,686,688,690,-1,-1,692,694,696,-1,698,700,702,704,706,708,-1,710,712,714,716,718,-1,-1,720,722,-1,-1,-1,-1,-1,-1,-1,-1,724,726,728,730,732,734,736,738,740,-1,742,744,746,748,750,-1,752,754,756,758,-1,-1,-1,-1,760,-1,762,-1,-1,-1,-1,-1,764,766,768,-1,-1,770,772,-1,-1,-1,-1,-1,-1,774,776,778,-1,780,-1,-1,-1,-1,-1,-1,-1,-1,-1,-1,-1,-1,-1,-1,-1,-1,-1,-1,-1,-1,-1,-1,-1,-1,-1,-1,-1,-1,-1,-1,-1,-1,-1,-1,-1,-1,-1,-1,-1,-1,-1,-1,-1,-1,-1,-1,-1,-1,-1,-1,-1,-1,-1,-1,-1,-1,-1,-1,-1,-1,-1,-1,-1,-1,-1,-1,-1,-1,-1,-1,-1,-1,-1,-1,-1,-1,-1,-1,-1,-1,-1,-1,-1,-1,-1,-1,-1,-1,-1,-1,-1,-1,-1,-1,-1,-1,-1,-1,-1,-1,-1,-1,-1,-1,-1,-1,-1,-1,-1,-1,-1,-1,-1,-1,-1,-1,-1,-1,-1,-1,-1,-1,-1,-1,-1,-1,-1,-1,-1,-1,-1,-1,-1,-1,-1,-1,-1,-1,-1,-1,-1,-1,-1,-1,-1,-1,-1,-1,-1,-1,-1,-1,-1,-1,-1,-1,-1,-1,-1,-1,-1,-1,-1,-1,-1,-1,-1,-1,-1,-1,-1,-1,-1,-1,-1,-1,-1,-1,-1,-1,-1,-1,-1,-1,-1,-1,-1,-1,-1,-1,-1,-1,-1,-1,-1,-1,-1,-1,-1,-1,-1,-1,-1,-1,-1,-1,-1,-1,-1,-1,-1,-1],"split_conditions":[1.445E2,3.5E0,4.5E0,1.68E2,4.65E1,4.86E2,4.485E2,4.9954544E1,2.554953E2,1.35E1,1.25E1,1.5E0,3.2206218E0,9.5E0,1.15E1,3.05E1,1.235E2,1.19E3,2.455E2,5.5E0,7.5E0,1.1615E3,8.85E1,1.8778274E0,3.5E0,2.63E2,2.465E2,3.75E1,5E-1,5.5E0,2.75E1,5E-1,2.5E0,2.0593899E1,1.6284416E0,2.5262592E0,1.2159221E0,2.5E0,8.5E0,9.55E1,2.35E1,8.5E0,7.776627E-1,6.65E1,2.02E2,1.044482E0,9.35E1,2.35E1,1.864751E2,1.45E1,2.505E2,2.26E2,8.55E1,5E-1,6.755E2,1.3652485E1,3.2501778E-1,5.0214505E-1,2.4E1,-2.545E2,2.85E1,8.4752744E-1,5.85E1,3.605E2,1.5E0,4.5E0,1.15E1,5.45E1,1.45E1,1.85E1,5.5E0,1.15E1,1.35E1,1.205E2,3.71E2,2.815E2,7.78745E4,2.675E1,6.18E2,6.6783637E-1,3.2231784E-1,2.0965E3,7.5E0,4.69255E4,4.928806E-1,2.5E0,1.9309186E2,7.646488E-1,1.45E1,4.1133124E-1,9.622644E0,2.0611908E0,1.1516069E0,5.095E2,1.1668433E0,9.075E2,3.80839E6,9.5E0,1.5E0,1.3085218E-1,2.0718503E-1,8.15E1,6.7E1,1.55E1,9.95E1,2.65E1,5.796815E-1,3.75E0,3.185052E-1,7.045E2,1.0577555E2,5.63E2,5E-1,4.575E2,1.075E2,4.5E0,2.5E0,1.45E1,2.2E1,8.75E0,1.550691E6,3.05E1,3.95E1,1.045E2,1.3290649E7,3.35E1,3.55E1,2.25E1,1.995E2,9.4E1,-1.75E0,1.65E1,3.79E2,1.7535721E-1,7.5E0,1.85E1,5.745E2,5.5E1,-3.45E1,4.425E1,6.749874E0,6.41584E-1,3.8686725E-1,5.962248E-1,4.775E2,3.0169098E1,1.0542364E2,1.5E1,1.615E2,2.85E1,4.2952405E6,6.956782E-1,1.2372509E0,3.686488E-1,1.75E1,5.37E2,1.11E2,2.80245E-1,7.395E2,2.2937984E0,4.15E1,1.65E1,1.05E1,2.95E1,1.1075612E2,5E0,3.7228024E-1,6.25E0,2.5E0,3.084375E1,4.7914213E-1,8.160561E-2,2.5849476E-1,1.25E1,1.6711324E-1,6.685315E1,6.087003E-1,6.0602415E-1,5.25E1,1.15E1,6.623807E-2,8.13E2,8.5E0,5.5E0,2.221777E6,1.2086284E7,3.85E1,5E-1,7E0,8.227039E0,9.60717E-2,5.5E0,5.05E1,3.9238337E-2,2.95E1,2.662851E1,5.45E2,1.05E1,3.2542446E1,1.0223168E-1,1.7E1,1.7E1,1.1107388E-1,1.375E1,3.2177845E1,4.25E1,4.875E1,6.537012E1,6.15E1,2.15E1,7.5E1,1.09E2,1.865E2,6.7462875E1,2.1381836E-1,2.175E1,4.29251E5,8.55E1,3.2039604E-1,1.1014E4,2.6689095E1,8.345438E-2,3.693782E-2,6.85E1,5.375E1,1.5E1,1.25E2,1.185E2,9.875E2,1.22310475E-1,4.32E2,1.8665963E-1,-6.58E2,5.4962087E-1,6.5E0,1.1001696E-1,2.638138E-1,7.276662E-1,1.537322E0,1.306314E-1,1.5814651E2,1.020045E5,1.223E3,-4.105E2,2.4E2,1.0453153E-1,2.85E1,5.5E0,2.3072695E6,9.27E2,3.85E1,1.0241835E0,1.175E3,1.4163633E-1,3.1709835E-1,1.3276834E-2,3.3675425E-2,3.85E1,8.13426E-1,3.5439024E0,1.5E0,2.5E0,1.0652819E-1,2.5E0,1.8272613E-1,1.8E1,3.7524445E1,3.483748E-1,9.5223904E-1,1.355E2,5.1799786E-1,3.334054E-2,1.5814519E-1,2.5E0,1.4952286E2,3.95E1,2.15E1,5.7013206E1,8.545E2,9.623383E-2,2.35E2,7.803741E-1,1.3119131E0,2.05E1,3.80839E6,3.785E2,1.63E2,1.45E1,1.0365E3,2.05E1,1.2525475E7,2.5E-1,2.5E0,3.5E0,6.058068E-2,7.04E2,2.75E1,3.55165E4,2.3887094E-2,1.3856783E-3,4.35E1,1.05E1,1.45E1,8.06041E-3,2.475E2,7.0195E3,8.75E0,4.5E0,6.5E0,1.5936835E2,1.99E2,5E-1,2.305E2,6.8884134E-2,3.3338938E-2,1.45E1,2.75E1,1.4733955E-1,5E-1,1.0095963E-1,2.0201945E-1,4.791044E-2,7.634249E-2,1.3E1,5.1510558E-2,7.835952E-2,3.805266E-2,1.65E1,1.898395E5,6.559576E-2,9.9E1,8.793225E5,1.05E1,3.25E1,7.75E0,7.561762E-2,1.325E1,2.3E2,3.65E1,4.213505E5,9.294498E0,1.8599677E-1,4.5455498E-1,3.0329588E-1,5.038742E-1,5.35E1,1.225E2,6.7E2,1.25E1,1.06181026E-1,1.8565443E-1,8.6829245E-2,2.1E1,1.3585363E1,6.15E1,3.45E1,5.7E1,6.1E1,1.0316411E-1,4.98625E4,9.5E0,8.59375E4,1.511867E2,8.95E1,1.5785043E-1,1.0205E3,4.6263278E-2,2.8185353E-1,1.628057E-1,5.98E2,8.085E2,4.353263E-1,1.36122875E1,2.02E2,1.9110997E-1,1.1666596E-1,5.8368344E-2,9.3008675E-2,2.3181388E-1,1.375E1,2.155E2,4.295E2,2.03E2,1.6867153E-1,-8.085E2,3.9828435E-1,2.3E2,3.7641928E-1,7.318168E-1,2.915E2,2.8E1,1.0675E2,3.8317356E-1,4.4402388E-1,7.377521E-1,2.5969386E-1,6.726789E-1,4.5E0,4.2204347E0,1.8655605E1,4.5E0,3.885239E-2,1.6485242E-2,3.9623222E1,5.6662283E0,8.5E0,5E-1,2.4247564E1,1.17484964E-1,1.121566E-1,2.5388452E-1,3.59E2,2.5E0,7.13E2,2.6045991E-2,6.173622E-2,2.3949163E1,2.762117E-2,6.2445946E-2,3.275E1,5E-1,5.65E1,3.85E1,5.083211E-2,2.5343461E-2,1.2529083E-1,2.3285154E-1,3.1199253E-1,5.1768774E-1,8.5E0,7.219266E-3,-7.05E1,3.564807E-2,2.05E1,3.5E0,3.0715993E-2,1.605E3,1.9058939E0,2.2E1,-1.85E1,1.4233824E7,-1.75E1,4.65E2,1.45E1,7.364602E-1,2.0628038E-3,9.949609E-3,-1.45E1,9.245031E-3,2.9819196E-2,4.725E1,8.76984E5,6.175001E6,7.5E0,3.3846344E-3,1.495E2,5E-1,6.4706945E0,5.5E0,1.575E2,2.202616E-2,5E-1,1.5E0,5E-1,7.2E1,2.3986135E-2,6.53E2,2.35E1,9.5E0,2.265E2,1.0775E2,5E-1,1.491524E6,1.5E0,1.9371413E-2,1.4847007E-2,-2.43E2,5.3888492E-2,1.3171159E-1,8.8151764E1,5E-1,7.877082E-2,4.383205E-2,5.1625E3,6.782125E5,-7.15E1,4.95E1,6.3E1,5E-1,3.5216985E-3,2.1748085E-2,2.695E2,1.25E1,5.95E1,2.3593009E-2,8.306397E-1,1.15E1,2.45E1,1.95E1,1.75E1,1.75E1,1.2007407E-1,8.6E1,5E-1,1.585E2,5.95E1,3.3922134E1,3.2405156E-1,1.8219602E-1,3.75E1,7.145789E1,1.3441288E-1,7.8533344E-2,1.1942918E-1,2.328399E-1,9.2888236E-2,1.4525941E-1,3.12832E-2,1.4108206E-2,4.2953026E1,-2.3243642E-1,5.15E1,4.35E1,2.05E1,1.079E3,1.85E1,-1.83E2,1.55E1,1.561395E-1,5E-1,-4.045E2,3.5309593E1,1.2775E2,5.425E1,6.596911E-2,1.605E2,1.8908438E2,2.5E1,1.165E2,1.4861266E-1,9.252552E-2,6.2424302E-2,9.939781E-2,4.85E1,1.6920239E-1,3.8E1,4.5299634E-2,3.1969061E-1,1.7857063E-1,2.9122794E-1,4.657813E-1,1.825E2,5E-1,7.5E0,1.6957985E-1,6.422298E-2,1.79E2,2.05E1,3.2768187E-1,2.0894991E-1,3.5873455E-1,9.908228E-2,2.146817E-1,1.08604275E-1,6.490859E1,2.28E2,8.5E0,3.4372535E-1,3.665E2,-2.2395884E-4,3.0906044E-3,1.784039E-2,6.4072288E-3,2.5445713E-2,6.762969E-2,5.518213E-3,2.0458888E-2,4.805805E-2,5.040045E-3,8.107722E-2,1.5057167E-1,3.4305844E-2,1.0953752E-2,3.1656835E-2,6.446758E-2,8.523374E-2,4.311979E-2,1.3456123E-2,2.8102435E-3,5.0653238E-2,1.6721599E-2,4.5062046E-2,9.071977E-2,8.9939214E-2,1.647286E-1,4.094694E-2,1.177467E-1,2.1087335E-1,1.1524369E-1,2.9639986E-1,5.1389277E-1,1.6828819E-1,2.8031135E-1,-1.9745023E-3,1.5567961E-3,1.1648809E-2,3.0092557E-3,-1.1335448E-3,5.711686E-3,-2.1199556E-3,-1.1732663E-3,-2.1819898E-3,-7.084017E-4,2.1125506E-5,4.8541576E-3,3.7076112E-3,1.5181379E-2,8.4129005E-4,-9.0031896E-4,2.5534071E-2,1.6686904E-3,8.039534E-3,2.2612354E-3,2.116168E-2,4.690816E-3,9.21764E-3,2.3351307E-3,6.0495394E-3,1.065208E-2,5.283152E-3,8.6677447E-4,7.085739E-3,2.1722968E-4,7.965969E-3,1.6696233E-2,1.9588391E-3,1.1525104E-2,1.3414746E-2,8.652018E-3,1.1791794E-2,2.003619E-2,1.7832046E-2,3.4441527E-2,2.7272485E-2,5.9541345E-2,2.037573E-2,3.083511E-2,6.0807552E-2,2.9854197E-2,1.0885156E-2,3.639612E-3,3.549902E-3,1.1755837E-2,6.125582E-3,1.5477816E-2,2.180154E-2,1.23302275E-2,2.3423078E-2,3.6241638E-3,1.9014901E-3,4.924121E-2,5.0643235E-3,9.520939E-3,1.0202944E-2,3.1594526E-2,3.0984522E-3,7.26885E-3,1.2936248E-2,2.1540248E-3,9.39158E-3,2.6996229E-2,2.1262046E-2,5.0891254E-2,2.9465368E-2,1.628268E-2,5.3877395E-2,2.8952975E-2,6.033392E-2,9.837849E-2,2.1846747E-2,1.0565852E-2,3.221535E-2,1.8301534E-2,2.1154875E-2,9.92059E-3,7.275145E-3,1.2464576E-2,1.6293649E-2,3.9121702E-2,1.4343514E-2,2.4622995E-2,2.3605363E-2,3.35729E-2,5.6355977E-3,1.9004732E-2,3.6433324E-2,6.577822E-2,6.2536895E-2,3.4452904E-2,6.6297345E-2,1.1080114E-1,4.3765858E-2,1.8209914E-2,4.4148676E-2,7.4513726E-2,2.4091925E-2,1.5994344E-2,3.989827E-2,2.4433335E-2,1.5595689E-2,5.702426E-2,2.8557172E-2,6.200587E-2,6.825744E-2,4.0147785E-2,1.04419716E-1,2.2482583E-1,1.9624065E-1,1.2465094E-1,6.836486E-2,1.2726413E-1,7.858105E-2,4.788108E-2,3.19041E-2,5.186837E-2,8.180967E-2,4.7548242E-2,1.712036E-2,3.4928102E-2,1.2881109E-2,2.6708255E-2,2.6799502E-2,8.920512E-3,3.665886E-2,1.581779E-2,6.0253244E-2,3.9870784E-2,7.528503E-2,4.2957872E-2,1.1887205E-1,6.445639E-2,2.5795717E-2,9.554403E-3,4.0417686E-2,6.1527804E-2,4.7679365E-2,1.953929E-2,8.81606E-2,4.4964645E-2,1.2532894E-1,8.454649E-2,3.714807E-2,6.869161E-2,8.8846255E-3,3.42261E-2,4.8062343E-2,8.580029E-2,2.810938E-2,5.5874664E-2,1.3289027E-1,7.374283E-2,1.1758257E-1,6.0231302E-2,2.9842556E-2,7.57592E-2,1.029404E-1,6.0804803E-2,6.2977396E-2,1.2793165E-1,1.07202835E-1,1.5035029E-1,2.3323117E-1,1.3650137E-1,1.15362324E-1,3.0662888E-1,4.085332E-2,1.102642E-1,2.596836E-1,1.5178445E-1,1.8520668E-1,6.3122764E-2],"split_indices":[30,34,34,36,30,29,30,6,23,30,34,34,0,34,34,29,7,36,36,30,34,36,30,0,34,29,30,12,1,17,35,34,29,11,0,0,0,30,34,36,30,34,0,36,31,0,35,12,6,34,32,36,4,41,36,21,0,0,36,24,29,0,29,36,34,34,34,36,17,29,34,34,34,29,36,29,0,12,20,0,0,1,34,2,0,1,18,0,34,0,26,0,0,30,0,15,0,29,34,0,0,35,36,29,29,29,0,12,0,15,28,15,30,10,29,7,17,34,34,12,0,29,29,36,0,36,34,17,1,29,27,34,29,0,1,34,25,36,27,22,26,0,0,0,36,11,18,3,30,12,0,0,0,0,34,29,35,0,29,11,20,29,29,36,18,12,0,17,34,16,0,0,0,3,0,13,0,0,29,36,0,36,34,34,0,0,12,7,36,13,0,36,36,0,17,18,15,7,18,0,3,3,0,17,6,34,7,13,35,25,32,22,36,13,0,12,0,35,0,2,16,0,0,30,12,3,29,30,10,0,32,0,24,0,34,0,0,0,0,0,18,2,5,24,36,0,34,1,0,20,12,0,5,0,0,0,0,12,0,8,34,34,0,36,0,36,13,0,0,35,0,0,0,29,28,7,29,21,5,0,36,0,0,12,0,5,35,34,36,36,0,17,36,12,0,36,32,2,0,0,25,29,36,0,10,2,7,32,32,6,29,1,10,0,0,36,36,0,52,0,0,0,0,36,0,0,0,34,0,0,29,0,34,29,17,0,12,25,30,0,26,0,0,0,0,35,7,5,17,0,0,26,3,16,29,34,34,1,0,2,1,2,21,36,0,5,0,0,0,36,29,0,26,29,0,0,0,0,0,12,29,5,33,0,24,0,36,0,0,29,12,22,0,0,0,0,0,36,23,28,29,0,0,18,26,3,43,8,0,0,0,10,34,5,0,0,11,0,0,7,40,36,36,0,0,0,0,0,0,10,0,24,0,36,31,0,36,11,3,33,0,24,5,35,26,0,0,27,0,0,7,0,0,29,0,35,52,26,17,36,0,22,36,43,35,0,0,34,30,29,22,41,0,36,0,0,24,0,0,8,43,0,0,2,0,24,29,31,44,0,0,5,36,7,0,26,1,1,12,34,34,0,36,27,29,29,18,0,0,7,6,0,0,0,0,0,0,0,0,11,26,33,36,34,10,34,24,34,0,50,24,11,7,7,0,36,8,36,35,0,0,0,0,1,0,1,0,0,0,0,0,30,48,12,0,0,30,3,0,0,0,0,0,0,28,36,3,0,29,0,0,0,0,0,0,0,0,0,0,0,0,0,0,0,0,0,0,0,0,0,0,0,0,0,0,0,0,0,0,0,0,0,0,0,0,0,0,0,0,0,0,0,0,0,0,0,0,0,0,0,0,0,0,0,0,0,0,0,0,0,0,0,0,0,0,0,0,0,0,0,0,0,0,0,0,0,0,0,0,0,0,0,0,0,0,0,0,0,0,0,0,0,0,0,0,0,0,0,0,0,0,0,0,0,0,0,0,0,0,0,0,0,0,0,0,0,0,0,0,0,0,0,0,0,0,0,0,0,0,0,0,0,0,0,0,0,0,0,0,0,0,0,0,0,0,0,0,0,0,0,0,0,0,0,0,0,0,0,0,0,0,0,0,0,0,0,0,0,0,0,0,0,0,0,0,0,0,0,0,0,0,0,0,0,0,0,0,0,0,0,0,0,0,0,0,0,0,0,0,0,0,0,0,0,0,0,0,0,0,0,0],"split_type":[0,0,0,0,0,0,0,0,0,0,0,0,0,0,0,0,0,0,0,0,0,0,0,0,0,0,0,0,0,0,0,0,0,0,0,0,0,0,0,0,0,0,0,0,0,0,0,0,0,0,0,0,0,0,0,0,0,0,0,0,0,0,0,0,0,0,0,0,0,0,0,0,0,0,0,0,0,0,0,0,0,0,0,0,0,0,0,0,0,0,0,0,0,0,0,0,0,0,0,0,0,0,0,0,0,0,0,0,0,0,0,0,0,0,0,0,0,0,0,0,0,0,0,0,0,0,0,0,0,0,0,0,0,0,0,0,0,0,0,0,0,0,0,0,0,0,0,0,0,0,0,0,0,0,0,0,0,0,0,0,0,0,0,0,0,0,0,0,0,0,0,0,0,0,0,0,0,0,0,0,0,0,0,0,0,0,0,0,0,0,0,0,0,0,0,0,0,0,0,0,0,0,0,0,0,0,0,0,0,0,0,0,0,0,0,0,0,0,0,0,0,0,0,0,0,0,0,0,0,0,0,0,0,0,0,0,0,0,0,0,0,0,0,0,0,0,0,0,0,0,0,0,0,0,0,0,0,0,0,0,0,0,0,0,0,0,0,0,0,0,0,0,0,0,0,0,0,0,0,0,0,0,0,0,0,0,0,0,0,0,0,0,0,0,0,0,0,0,0,0,0,0,0,0,0,0,0,0,0,0,0,0,0,0,0,0,0,0,0,0,0,0,0,0,0,0,0,0,0,0,0,0,0,0,0,0,0,0,0,0,0,0,0,0,0,0,0,0,0,0,0,0,0,0,0,0,0,0,0,0,0,0,0,0,0,0,0,0,0,0,0,0,0,0,0,0,0,0,0,0,0,0,0,0,0,0,0,0,0,0,0,0,0,0,0,0,0,0,0,0,0,0,0,0,0,0,0,0,0,0,0,0,0,0,0,0,0,0,0,0,0,0,0,0,0,0,0,0,0,0,0,0,0,0,0,0,0,0,0,0,0,0,0,0,0,0,0,0,0,0,0,0,0,0,0,0,0,0,0,0,0,0,0,0,0,0,0,0,0,0,0,0,0,0,0,0,0,0,0,0,0,0,0,0,0,0,0,0,0,0,0,0,0,0,0,0,0,0,0,0,0,0,0,0,0,0,0,0,0,0,0,0,0,0,0,0,0,0,0,0,0,0,0,0,0,0,0,0,0,0,0,0,0,0,0,0,0,0,0,0,0,0,0,0,0,0,0,0,0,0,0,0,0,0,0,0,0,0,0,0,0,0,0,0,0,0,0,0,0,0,0,0,0,0,0,0,0,0,0,0,0,0,0,0,0,0,0,0,0,0,0,0,0,0,0,0,0,0,0,0,0,0,0,0,0,0,0,0,0,0,0,0,0,0,0,0,0,0,0,0,0,0,0,0,0,0,0,0,0,0,0,0,0,0,0,0,0,0,0,0,0,0,0,0,0,0,0,0,0,0,0,0,0,0,0,0,0,0,0,0,0,0,0,0,0,0,0,0,0,0,0,0,0,0,0,0,0,0,0,0,0,0,0,0,0,0,0,0,0,0,0,0,0,0,0,0,0,0,0,0,0,0,0,0,0,0,0,0,0,0,0,0,0,0,0,0,0,0,0,0,0,0,0,0,0,0,0,0,0,0,0,0,0,0,0,0,0,0,0,0,0,0,0,0,0,0,0,0,0,0,0,0,0,0,0,0,0,0,0,0,0,0,0,0,0,0,0,0,0,0,0,0,0,0,0,0,0,0,0,0,0],"sum_hessian":[2.5753E4,2.485E4,9.03E2,1.405E3,2.3445E4,6.5E1,8.38E2,1.242E3,1.63E2,2.1836E4,1.609E3,5.4E1,1.1E1,6.88E2,1.5E2,9.16E2,3.26E2,1.5E2,1.3E1,1.8795E4,3.041E3,4.76E2,1.133E3,1.1E1,4.3E1,1.19E2,5.69E2,3.8E1,1.12E2,8.85E2,3.1E1,2.89E2,3.7E1,1.4E2,1E1,6E0,7E0,1.5985E4,2.81E3,3.15E2,2.726E3,4.67E2,9E0,7.39E2,3.94E2,3E1,1.3E1,8.8E1,3.1E1,3.41E2,2.28E2,2.4E1,1.4E1,4.5E1,6.7E1,8.75E2,1E1,7E0,2.4E1,7.6E1,2.13E2,9E0,2.8E1,4.1E1,9.9E1,1.3316E4,2.669E3,2.71E2,2.539E3,2.52E2,6.3E1,1.383E3,1.343E3,2.54E2,2.13E2,2.58E2,4.81E2,3.07E2,8.7E1,7E0,6E0,6E1,2.8E1,1.9E1,1.2E1,6.8E1,2.73E2,9E0,2.19E2,1E1,1.4E1,8E0,6E0,3.7E1,8E0,2.7E1,4E1,5.61E2,3.14E2,1.6E1,8E0,4.3E1,3.3E1,1.26E2,8.7E1,1.6E1,1.2E1,3.2E1,9E0,4.4E1,5.5E1,1.22E2,1.3194E4,3.34E2,2.335E3,2.3E2,4.1E1,2.215E3,3.24E2,7.6E1,1.76E2,3.2E1,3.1E1,1.37E2,1.246E3,2.2E2,1.123E3,2.26E2,2.8E1,1.86E2,2.7E1,2.43E2,1.5E1,6E0,4.75E2,2.35E2,7.2E1,2E1,6.7E1,4.7E1,1.3E1,1.7E1,1.1E1,7E0,1.2E1,3.5E1,3.3E1,2.46E2,2.7E1,5.1E1,1.68E2,7E0,7E0,8E0,2.9E1,1.4E1,1.3E1,8E0,3.2E1,5.38E2,2.3E1,1.5E2,1.64E2,1.6E1,2.7E1,2.4E1,9E0,7.5E1,5.1E1,7.5E1,1.2E1,7E0,9E0,2.1E1,1.1E1,2.6E1,1.8E1,1.7E1,3.8E1,1.16E2,6E0,8.785E3,4.409E3,3.16E2,1.8E1,2.086E3,2.49E2,4.3E1,1.87E2,3E1,1.1E1,3.08E2,1.907E3,6E0,3.18E2,6.3E1,1.3E1,1.44E2,3.2E1,2E1,1.2E1,2.4E1,7E0,1.22E2,1.5E1,1.221E3,2.5E1,1.05E2,1.15E2,7.97E2,3.26E2,2.05E2,2.1E1,2E1,8E0,1.29E2,5.7E1,1.9E1,8E0,5.9E1,1.84E2,9E0,6E0,2.68E2,2.07E2,1.09E2,1.26E2,3.8E1,3.4E1,6E0,1.4E1,9E0,5.8E1,1.4E1,3.3E1,7E0,6E0,6E0,6E0,6E0,2.9E1,1.7E1,1.6E1,1.24E2,1.22E2,6E0,2.1E1,3.4E1,1.7E1,1.18E2,5E1,7E0,2.2E1,6E0,8E0,6E0,7E0,1.5E1,1.7E1,4.01E2,1.37E2,1.4E1,9E0,1.39E2,1.1E1,1.13E2,5.1E1,1E1,6E0,1.9E1,8E0,6E0,1.8E1,4.6E1,2.9E1,3.4E1,1.7E1,3.2E1,4.3E1,6E0,1.5E1,1.1E1,1.5E1,1.3E1,2.5E1,8.6E1,3E1,8.766E3,1.9E1,1.86E2,4.223E3,6.6E1,2.5E2,1.2E1,6E0,2.065E3,2.1E1,2.38E2,1.1E1,6E0,3.7E1,8.6E1,1.01E2,1.1E1,1.9E1,1.31E2,1.77E2,1.169E3,7.38E2,2.35E2,8.3E1,3.5E1,2.8E1,7E0,6E0,1.7E1,1.27E2,1.1E1,2.1E1,6E0,6E0,9E0,1.5E1,1.14E2,8E0,6E0,9E0,9.5E2,2.71E2,9E0,1.6E1,8.2E1,2.3E1,3.1E1,8.4E1,6E0,7.91E2,2E1,3.06E2,1.8E2,2.5E1,1.2E1,9E0,1.2E1,8E0,1.09E2,2E1,1.7E1,4E1,7E0,1.2E1,1.2E1,4.7E1,1.07E2,7.7E1,1.67E2,1.01E2,2.01E2,6E0,6.2E1,4.7E1,5.5E1,7.1E1,2.6E1,1.2E1,2.2E1,1.2E1,7E0,7E0,2.4E1,3.4E1,1.3E1,2E1,2.3E1,6E0,8E0,9E0,6E0,1E1,8.6E1,3.8E1,7.1E1,5.1E1,6E0,1.5E1,2E1,1.4E1,8E0,9E0,6.2E1,5.6E1,2.4E1,2.6E1,1E1,1.2E1,7E0,8E0,1.92E2,2.09E2,6.9E1,6.8E1,7E0,7E0,4.5E1,9.4E1,7.3E1,4E1,4.4E1,7E0,1E1,9E0,1.2E1,3.4E1,2.3E1,6E0,6E0,2.8E1,7E0,1E1,1.2E1,2E1,1.7E1,2.6E1,8E0,7E0,6E0,7E0,1.6E1,9E0,7.8E1,8E0,2.1E1,9E0,6.16E2,8.15E3,6E0,1.3E1,1.57E2,2.9E1,4.207E3,1.6E1,3.2E1,3.4E1,9.4E1,1.56E2,6E0,6E0,2.056E3,9E0,6E0,1.5E1,6.1E1,1.77E2,3E1,7E0,6E1,2.6E1,2.6E1,7.5E1,1.3E1,6E0,8.5E1,4.6E1,5.8E1,1.19E2,7E0,1.162E3,1.8E1,7.2E2,9.9E1,1.36E2,4.2E1,4.1E1,2.5E1,1E1,1E1,1.8E1,1E1,7E0,7.5E1,5.2E1,1.4E1,7E0,4.4E1,7E1,1.71E2,7.79E2,2.7E1,2.44E2,6E0,1E1,6.6E1,1.6E1,1.4E1,9E0,1.5E1,1.6E1,4.4E1,4E1,5.44E2,2.47E2,8E0,1.2E1,2.18E2,8.8E1,4.5E1,1.35E2,7E0,1.8E1,2.7E1,8.2E1,1.2E1,8E0,1E1,7E0,3E1,1E1,6E0,6E0,3.3E1,1.4E1,5.6E1,5.1E1,2E1,5.7E1,1.06E2,6.1E1,9.4E1,7E0,4.6E1,1.55E2,1.9E1,4.3E1,3.7E1,1E1,4E1,1.5E1,5.5E1,1.6E1,7E0,1.9E1,9E0,1.3E1,1.5E1,9E0,2.8E1,6E0,1.2E1,8E0,1.5E1,8E0,3.2E1,5.4E1,2.3E1,1.5E1,1E1,6.1E1,4.3E1,8E0,8E0,7E0,8E0,6E0,1.1E1,5.1E1,3.3E1,2.3E1,1.2E1,1.2E1,1.56E2,3.6E1,3.2E1,1.77E2,6.3E1,6E0,5.2E1,1.6E1,3.4E1,1.1E1,8.6E1,8E0,1.1E1,6.2E1,3.3E1,7E0,1.6E1,2.8E1,6E0,6E0,2.4E1,1E1,7E0,1.6E1,7E0,2.1E1,6E0,6E0,1.2E1,8E0,1.1E1,6E0,1.3E1,1.3E1,2.3E1,5.5E1,8E0,1.3E1,5.73E2,4.3E1,6.575E3,1.575E3,7E0,6E0,7.7E1,8E1,9E0,2E1,4.77E2,3.73E3,8E0,8E0,2.1E1,1.1E1,2.5E1,9E0,1.2E1,8.2E1,1.17E2,3.9E1,2.5E1,2.031E3,6E0,9E0,4.6E1,1.5E1,1.65E2,1.2E1,1.2E1,1.8E1,4.3E1,1.7E1,1.6E1,1E1,1.9E1,7E0,5.5E1,2E1,7E0,6E0,7E0,7.8E1,1.5E1,3.1E1,5E1,8E0,4.4E1,7.5E1,7E0,1.155E3,1.2E1,6E0,4.29E2,2.91E2,9.1E1,8E0,4.2E1,9.4E1,3.5E1,7E0,1.3E1,2.8E1,6E0,1.9E1,1.2E1,6E0,4.7E1,2.8E1,4.4E1,8E0,2.2E1,2.2E1,4.6E1,2.4E1,1.25E2,4.6E1,4.7E2,3.09E2,1.5E1,1.2E1,2.1E2,3.4E1,2.9E1,3.7E1,6E0,1E1,7E0,7E0,8E0,7E0,8E0,8E0,3.1E1,1.3E1,2.7E1,1.3E1,1.29E2,4.15E2,4.1E1,2.06E2,6E0,6E0,2.11E2,7E0,1.2E1,7.6E1,1.4E1,3.1E1,2E1,1.15E2,1.4E1,1.3E1,3.3E1,4.9E1,1.7E1,1.6E1,6E0,8E0,2.9E1,2.7E1,4E1,1.1E1,1.3E1,7E0,5E1,7E0,3.5E1,7.1E1,5.1E1,1E1,2E1,7.4E1,3.7E1,9E0,1.12E2,4.3E1,1.3E1,6E0,3.6E1,7E0,2.1E1,1.6E1,2.9E1,1.1E1,7E0,8E0,1.4E1,4.1E1,8E0,8E0,8E0,7E0,2.2E1,6E0,1.3E1,1.9E1,4.6E1,8E0,9E0,1.4E1,2.5E1,3.6E1,1.6E1,2.7E1,6E0,4.5E1,1.3E1,2E1,1.4E1,9E0,6E0,6E0],"tree_param":{"num_deleted":"0","num_feature":"53","num_nodes":"781","size_leaf_vector":"0"}},{"base_weights":[6.8563848E0,4.1306896E0,1.02773445E2,3.8294106E1,2.6619375E0,3.3287686E2,8.6653496E1,2.0824802E1,1.64186E2,1.0931559E0,2.4415289E1,2.2968365E2,5.5234106E2,6.390633E1,1.6819427E2,7.530631E0,4.9043106E1,6.73075E1,2.0415416E2,3.9798465E-1,8.3342E0,5.313977E1,1.8129633E1,1.6789885E2,3.7578772E2,1.121743E2,5.08324E1,2.7225977E2,1.3228094E2,5.017938E0,5.1693344E1,3.2070892E1,7.407864E1,1.7054667E1,9.9339584E1,2.9303394E2,1.454984E2,-7.816061E-2,2.5238323E0,2.2760958E1,6.5633764E0,8.476093E1,4.5813236E1,1.3915504E1,2.519342E1,2.092918E2,9.619039E1,8.680588E1,1.5275029E2,4.7375874E1,1.097967E2,1.5408641E2,3.4045706E2,1.6594128E2,8.257351E1,1.6040636E0,1.0250519E1,3.792506E1,8.99786E1,9.24539E1,2.8216946E1,1.0507705E2,5.7629715E1,7.4539905E0,2.8333536E1,6.872316E1,1.3226862E2,4.8697403E2,2.340834E2,8.963455E1,2.1392111E2,-2.4905556E-1,6.3004595E-1,7.6354833E0,2.079837E0,1.7099113E1,3.4083027E1,1.0561234E1,5.5273943E0,6.1496555E1,1.3471628E2,4.1091423E1,7.175591E1,1.2749659E1,4.351536E1,3.683977E1,2.2313715E1,6.91363E1,1.0452217E2,1.0540367E2,1.852214E2,3.7261482E1,6.108679E1,5.3204163E1,1.5252347E2,1.0068607E2,2.0073163E2,2.5605408E2,4.5615555E2,2.5554085E2,1.4461653E2,3.1079477E1,1.3733612E2,1.2384369E0,7.9854584E0,1.564159E1,7.100175E0,5.705136E1,1.745599E1,2.5464163E1,7.905731E1,1.6794118E2,7.438253E1,3.294117E1,1.03043594E2,8.7520454E1,4.3685135E1,2.786861E2,1.513893E2,6.376523E1,1.3322461E2,1.3753757E2,3.071043E2,1.1098008E0,-2.8423676E-1,2.1432261E0,4.3233907E-1,6.2121024E0,1.3393689E1,3.7799113E0,1.7518799E0,1.2977169E1,2.2817554E1,3.0007402E1,4.964481E1,8.90402E0,1.4401393E1,4.4373755E0,7.848144E0,3.230359E1,6.944253E1,8.6326996E1,1.627605E2,3.3777E1,5.0964336E1,9.0952705E1,4.0096676E1,1.8248575E1,1.134422E1,1.4456306E2,1.3481389E1,2.6656754E1,4.6467438E1,1.8379341E1,3.3079983E1,4.6095478E1,8.7568275E1,6.704277E1,1.2553165E2,2.07896E2,1.0369435E2,4.4837635E1,2.8498522E1,4.552338E1,7.536714E1,1.5761684E2,3.0416592E2,1.1630501E2,1.90648E2,5.758834E1,6.1376314E0,9.887408E1,1.8190639E2,2.8796498E-2,2.4623916E0,1.2918709E1,4.714827E0,1.1072229E1,2.2035583E1,6.0095754E0,1.5653864E1,7.331317E1,3.2639355E1,2.3463806E1,1.0017153E1,3.626418E1,1.9667353E1,4.2150578E1,1.28185E2,1.120302E1,3.7850178E1,1.676886E2,7.203341E1,7.2650795E1,3.913414E1,1.7194429E2,9.549483E1,1.6480635E1,6.8723327E-1,-3.7294632E-1,-1.0901763E-1,1.4585165E0,3.0357723E0,3.911048E-1,3.5656035E0,4.6203036E0,7.457983E0,1.0012649E1,1.887397E1,3.617855E0,1.5903456E1,1.3676821E0,2.7614024E0,1.6938595E1,9.640203E0,1.9463825E1,3.5682568E1,3.1985117E1,1.5685942E1,8.478028E0,2.2602589E1,1.1378159E1,1.710195E1,3.8483949E0,6.2181334E0,7.043557E0,1.3366816E1,3.856839E1,7.7513E1,3.927502E1,2.5676208E1,6.3030598E1,3.7397346E1,1.3811319E1,5.608565E1,1.4219891E1,2.2458828E1,1.0178052E1,1.7602327E1,1.0321579E1,2.0132105E1,1.8239828E1,3.183257E1,3.235516E1,6.81904E1,1.5370977E1,2.324443E1,6.186325E1,2.8700815E1,5.5544613E1,2.6159838E1,9.744712E1,5.5300827E1,2.3606508E2,1.3393088E2,6.6396935E1,3.846522E1,2.2480913E1,3.8568626E1,6.0323532E1,3.1706806E1,1.0068456E2,6.475959E1,1.25941345E2,5.839143E1,1.6138883E0,1.04308195E1,-1.4395326E-1,1.409279E0,6.156963E0,2.110532E0,2.3732178E0,6.3828897E0,8.509283E0,2.2087168E1,2.8072155E1,1.6406376E1,4.6478386E0,1.0901461E1,1.945516E1,1.0535615E1,1.7708248E1,4.7535885E1,1.2345266E1,3.6747646E1,2.2326956E1,4.9582485E1,1.9107523E1,4.044319E1,4.7281895E1,1.03250435E2,5.282317E-1,7.9485607E0,-3.7811932E-1,2.1322424E0,6.394091E-1,-1.4642183E-1,9.0365756E-1,2.1127431E0,5.7414412E0,2.6333137E0,2.9087073E-1,8.895353E-1,7.488506E0,2.037224E0,2.6803713E0,6.127577E0,4.775197E0,8.560523E0,7.6526937E0,1.5855251E1,2.5536045E1,1.4506737E1,3.196253E0,6.1118937E0,8.460679E-1,1.791779E0,5.063265E0,2.3258789E0,1.3753496E1,2.5673521E1,7.5268054E0,1.2328289E1,1.3550776E1,2.4173416E1,3.7166924E1,2.6194433E1,6.9764247E0,1.1808666E1,6.24876E0,1.323848E1,9.02678E0,1.7923288E1,1.5534273E1,3.7270782E0,1.4163988E1,5.760618E0,6.0944047E0,9.670917E0,1.9686249E1,1.0269453E1,3.0289179E1,4.580849E1,2.1686506E1,3.5670223E1,3.819308E1,6.7616516E1,2.787558E1,4.97602E1,1.2148994E1,2.1253284E1,3.1452623E1,2.0140516E1,7.3378677E0,1.1957812E1,1.3433076E1,2.3172659E1,1.2745202E1,6.865797E0,2.1543728E1,8.554356E0,1.8243969E1,3.4584206E1,3.633481E1,1.6371813E1,4.209151E1,7.7732216E1,1.3974204E1,1.949766E1,1.6100725E1,2.7419945E1,3.750587E1,7.7383026E1,1.9199411E1,3.4103397E1,4.410693E1,8.8726364E1,3.0270674E1,4.6190063E1,1.8888693E1,3.051703E1,4.7914024E1,2.72948E1,6.884735E1,2.9572115E1,4.0911766E1,1.1183096E1,7.166496E1,1.1749464E2,5.655004E1,9.135329E1,-2.1600866E-1,2.9164726E-1,4.5394108E-1,2.9821522E0,7.793929E0,3.4065783E0,1.7087154E0,4.443763E0,5.9513593E0,1.6355297E1,1.4669157E1,3.537758E1,9.750475E0,2.0031105E1,1.3835988E0,5.816866E0,8.266254E0,1.5546199E1,1.1235577E1,2.5809263E1,6.4269135E1,3.0021008E1,6.6325917E0,1.6675877E1,5.0431805E1,3.0655107E1,3.025931E1,6.182245E1,2.933811E1,4.4155903E1,1.7705175E-1,1.8235044E0,-4.066064E-1,-2.4928647E-1,6.1362844E0,-3.8113552E-1,-1.1389454E-1,9.579038E-1,8.958107E-2,-2.0831858E-1,1.5651283E0,4.835227E-1,1.415388E0,2.8551283E0,2.8212981E0,7.8741674E0,3.16732E0,1.3719516E0,2.208739E-1,7.360514E-1,8.036008E-1,2.4601629E0,5.286604E-1,2.9822557E0,6.2446916E-1,3.1915138E0,6.592136E0,1.6684647E0,3.233181E0,6.5659294E0,1.4278031E1,7.452953E0,8.590545E0,3.4779418E0,8.854452E0,1.72911E1,2.413641E0,3.9554727E0,4.206053E0,9.364964E0,8.048629E-1,2.902806E0,1.5029761E0,2.6031187E0,4.3614736E0,1.4781774E1,1.2648805E0,2.8888369E0,8.000706E0,1.6229856E1,8.976147E0,4.207385E0,1.6674753E1,7.2562056E0,1.4935158E1,8.055112E0,2.8218712E1,1.3396891E1,5.058106E1,2.9885487E1,1.9753883E1,3.5167976E1,4.820327E0,8.059517E0,1.458573E1,9.402812E0,7.6697164E0,3.3261433E0,1.4547728E1,5.362134E0,1.5176366E1,2.246861E1,3.4248474E0,5.159973E0,9.9096155E0,5.277839E0,5.6918545E0,1.1183852E1,1.171131E1,7.440897E0,1.2188011E1,2.6598263E1,4.872465E0,1.1297779E1,3.573243E1,2.1738E1,5.8138832E1,3.863173E1,2.4136824E1,7.0369387E0,7.469238E1,4.245761E1,2.1984604E1,4.0724716E1,6.2163944E1,2.8035496E1,1.0354451E1,2.0506678E1,1.2756968E1,2.5500307E1,3.9092094E1,1.8228569E1,2.8286514E1,1.6835882E1,6.6793504E0,1.1088278E1,9.982827E0,1.3661326E1,1.0674868E1,1.5580009E1,3.9609932E1,1.8623516E1,2.1613749E1,4.0041065E1,1.6793755E1,1.11177225E1,2.7370338E1,1.4911398E1,1.0930593E1,2.336501E1,1.662472E1,3.0421844E1,2.635501E1,1.1409927E1,2.4009193E1,3.9183643E1,3.7581486E1,2.1749035E1,3.0001528E1,5.0883232E1,1.4500313E1,2.2550585E1,4.2803898E1,1.8758793E1,2.866854E1,5.8355305E1,1.5878733E1,3.5191696E1,1.822915E1,5.1341618E1,1.5973679E1,6.214522E0,8.781103E1,4.9418926E1,-4.443175E-2,-3.1469855E-1,-2.507912E-1,6.864732E-1,9.9436796E-1,-1.5133454E-1,3.6328903E-1,2.5955193E0,5.8398743E0,2.5167537E0,1.1478068E1,4.3571334E0,2.3122623E0,2.2344074E-1,7.8211484E0,3.767376E0,1.5679536E1,5.9426646E0,8.947076E1,3.4726673E1,3.964983E1,2.0289045E1,3.6684808E-1,7.9621496E0,2.4825985E1,1.4627915E1,2.2122757E1,3.5169445E1,-1.153896E-1,5.987092E-1,9.577894E-1,4.631324E0,-4.2025137E-1,-2.7394786E-1,1.3168517E0,-2.755148E-1,-2.0262167E-1,4.409818E-1,7.3782676E-1,2.1123269E0,2.5470393E-2,4.4104287E-1,1.7321506E-1,-2.308243E-1,1.861679E0,3.410332E-1,-2.3001838E-1,5.748819E-1,9.2245996E-1,2.15795E0,3.9289272E0,1.505124E0,4.1387005E0,2.2461462E0,3.1895313E0,8.794468E-1,8.9645214E-2,3.779677E-1,1.4565611E0,5.837341E-1,1.1345953E0,4.600406E-1,4.0442486E0,1.5699954E0,4.1639366E0,6.992924E-1,3.684381E0,1.601999E0,7.123557E0,3.1435251E0,1.7877352E0,4.778914E0,7.7956886E0,3.5197802E0,6.5331273E0,1.2628846E1,9.65896E0,4.768599E0,3.057648E0,1.7763538E0,2.2016273E0,4.208713E0,3.346562E0,7.8451705E0,1.2152184E1,6.139228E0,2.668016E0,7.751841E-1,4.9829392E0,7.4040574E-1,1.2950556E0,2.4041023E0,3.9404213E0,2.115506E0,7.6154785E0,3.6196823E0,1.1403309E0,3.9283051E0,6.304266E0,2.6916366E0,4.920697E0,1.0362718E1,1.8592863E1,4.0688923E1,6.6362715E0,3.9480631E0,7.511326E0,1.3559576E1,1.6455051E1,9.351172E0,1.1825826E1,6.99185E0,1.768632E1,1.2317171E1,1.7852863E1,1.0774377E1,5.377013E0,3.1877823E0,3.683685E0,5.741887E0,6.7170167E0,1.5791326E1,3.86629E-1,5.4263554E0,5.2550426E0,7.7397223E0,3.7546895E0,1.4099587E1,1.6840822E1,1.0211157E1,2.8186507E0,8.2353E0,1.2680677E1,6.354742E0,4.0142666E1,2.3067389E1,1.4521844E1,2.7910486E1,4.3112812E1,2.4879251E1,3.1483583E1,1.8439455E1,8.3083694E1,4.0046864E1,1.4044436E1,8.61435E0,1.8358812E1,3.203264E1,1.2138268E1,2.2297659E1,7.2421427E0,3.4604058E0,6.825342E0,1.2328194E1,5.0715775E0,1.1248953E1,2.6708866E1,1.304006E1,1.2135435E1,4.3508797E0,1.801617E1,9.512792E0,1.3378648E1,2.4375107E1,2.6208637E1,4.646092E1,7.668715E0,1.7700312E1,6.614307E0,1.3617242E1,1.6463375E1,8.585537E0,1.350134E1,6.5920463E0,2.2239021E1,3.445926E1,6.9729257E0,1.4002935E1,3.0695414E1,1.0940717E1,4.6574104E1,2.9730885E1,2.4795341E1,4.322398E1,1.4976307E1,2.684876E1,3.9466553E1,5.842009E1,1.0572151E1,1.7112154E1,1.710785E1,2.6677332E1,3.9730656E1,6.722903E1,5.3899727E1,1.8674845E1],"categories":[],"categories_nodes":[],"categories_segments":[],"categories_sizes":[],"default_left":[true,true,true,true,true,true,true,true,true,true,true,true,false,true,true,true,true,true,true,true,true,true,true,true,false,true,true,true,true,true,true,true,true,true,true,true,true,true,true,true,true,true,true,true,true,false,false,true,true,true,true,true,true,true,true,true,true,true,false,false,true,true,true,false,false,true,false,false,true,true,true,true,true,true,true,true,true,true,true,true,true,true,true,true,true,true,true,true,true,false,true,true,true,false,false,false,false,true,false,false,true,true,true,true,true,true,true,true,true,true,false,false,true,true,true,false,false,false,false,true,false,true,false,true,true,true,true,true,true,true,true,true,true,true,false,true,true,true,true,false,true,false,false,true,true,false,true,true,true,false,true,true,true,true,true,true,true,false,false,true,false,true,true,true,true,false,false,true,false,false,true,false,false,true,true,false,true,true,true,true,true,false,